<?xml version="1.0"?>
<opencv_storage>
<circuit type_id="opencv-ml-svm">
  <svm_type>C_SVC</svm_type>
  <kernel><type>RBF</type>
    <gamma>5.0625000000000009e-01</gamma></kernel>
  <C>6.2500000000000000e+01</C>
  <term_criteria><epsilon>1.1920928955078125e-07</epsilon>
    <iterations>1000</iterations></term_criteria>
  <var_all>500</var_all>
  <var_count>500</var_count>
  <class_count>3</class_count>
  <class_labels type_id="opencv-matrix">
    <rows>1</rows>
    <cols>3</cols>
    <dt>i</dt>
    <data>
      1 2 3</data></class_labels>
  <sv_total>377</sv_total>
  <support_vectors>
    <_>
      0. 0. 0. 0. 0. 0. 0. 0. 0. 0. 0. 0. 2.43902430e-02 0. 0. 0. 0. 0.
      0. 0. 0. 0. 0. 2.43902430e-02 2.43902430e-02 0. 0. 0. 0. 0. 0. 0.
      0. 0. 0. 0. 0. 0. 0. 0. 0. 0. 0. 0. 0. 0. 0. 0. 0. 0. 0. 0. 0.
      2.43902430e-02 0. 0. 0. 0. 0. 0. 0. 0. 0. 0. 0. 0. 2.43902430e-02
      0. 0. 0. 0. 0. 0. 0. 0. 0. 0. 2.43902430e-02 0. 0. 0. 0. 0. 0. 0.
      0. 2.43902430e-02 0. 0. 0. 0. 0. 0. 0. 0. 2.43902430e-02 0. 0. 0.
      0. 0. 0. 0. 0. 0. 0. 0. 0. 0. 0. 2.43902430e-02 0. 0. 0. 0. 0. 0.
      0. 0. 0. 0. 0. 0. 2.43902430e-02 0. 2.43902430e-02 2.43902430e-02
      0. 0. 0. 0. 0. 2.43902430e-02 0. 0. 0. 0. 0. 0. 0. 0. 0. 0. 0. 0.
      0. 0. 2.43902430e-02 0. 0. 2.43902430e-02 0. 0. 0. 0. 0. 0. 0. 0.
      0. 0. 0. 0. 0. 0. 0. 0. 0. 0. 0. 0. 0. 0. 0. 0. 0. 0. 0.
      2.43902430e-02 0. 0. 0. 0. 2.43902430e-02 0. 0. 0. 2.43902430e-02
      0. 0. 0. 0. 0. 0. 0. 0. 0. 0. 0. 0. 0. 0. 0. 0. 0. 0. 0. 0.
      2.43902430e-02 0. 0. 0. 0. 0. 0. 0. 0. 0. 0. 0. 0. 0. 0. 0. 0. 0.
      0. 0. 0. 0. 0. 0. 0. 0. 0. 0. 0. 0. 0. 0. 0. 0. 0. 2.43902430e-02
      0. 0. 0. 0. 0. 0. 0. 0. 0. 0. 0. 0. 0. 0. 0. 0. 0. 0. 0. 0. 0. 0.
      0. 2.43902430e-02 0. 0. 0. 0. 0. 0. 0. 0. 0. 0. 0. 0.
      2.43902430e-02 0. 0. 0. 0. 0. 0. 0. 0. 0. 0. 0. 0. 0. 0. 0. 0. 0.
      0. 0. 0. 2.43902430e-02 0. 0. 0. 0. 0. 0. 0. 0. 0. 0. 0. 0. 0.
      2.43902430e-02 0. 0. 2.43902430e-02 0. 0. 0. 0. 0. 0. 0. 0. 0. 0.
      0. 0. 2.43902430e-02 0. 2.43902430e-02 0. 0. 0. 0. 0. 0. 0. 0. 0.
      0. 0. 0. 0. 0. 0. 0. 0. 0. 0. 0. 0. 4.87804860e-02 0. 0. 0. 0. 0.
      0. 0. 0. 0. 0. 0. 2.43902430e-02 0. 0. 2.43902430e-02 0. 0. 0.
      2.43902430e-02 0. 0. 2.43902430e-02 0. 0. 0. 0. 0. 0. 0. 0. 0. 0.
      0. 0. 0. 0. 0. 0. 0. 0. 0. 0. 0. 0. 0. 0. 0. 0. 0. 0.
      2.43902430e-02 0. 0. 0. 0. 0. 0. 0. 0. 0. 0. 0. 0. 0. 0. 0. 0. 0.
      0. 2.43902430e-02 0. 0. 0. 0. 0. 0. 0. 0. 0. 0. 0. 0.
      2.43902430e-02 0. 0. 0. 0. 0. 0. 0. 2.43902430e-02 0. 0. 0. 0. 0.
      0. 0. 0. 4.87804860e-02 0. 0. 0. 0. 0. 0. 0. 0. 0. 0. 0. 0. 0. 0.
      0. 0. 0. 0. 2.43902430e-02 2.43902430e-02 0. 0. 0. 0. 0. 0. 0. 0.
      0. 0. 0. 0. 0. 0. 0. 0. 0. 0. 0. 0. 0. 0. 0. 0.</_>
    <_>
      0. 0. 0. 0. 0. 0. 0. 0. 0. 1.69491526e-02 0. 0. 0. 0. 0. 0. 0. 0.
      0. 0. 0. 0. 0. 0. 0. 0. 0. 0. 0. 0. 1.69491526e-02 0. 0. 0. 0. 0.
      0. 0. 0. 1.69491526e-02 0. 0. 0. 0. 0. 0. 0. 0. 0. 0. 0. 0. 0. 0.
      1.69491526e-02 0. 0. 0. 0. 0. 1.69491526e-02 0. 0. 0.
      3.38983051e-02 0. 1.69491526e-02 0. 0. 0. 0. 0. 0. 1.69491526e-02
      3.38983051e-02 0. 0. 0. 0. 1.69491526e-02 0. 3.38983051e-02 0. 0.
      0. 0. 0. 0. 0. 0. 0. 3.38983051e-02 0. 0. 0. 0. 0. 0.
      1.69491526e-02 0. 0. 0. 0. 1.69491526e-02 0. 1.69491526e-02 0. 0.
      0. 0. 0. 0. 0. 0. 0. 0. 1.69491526e-02 0. 0. 0. 0. 0. 0. 0. 0. 0.
      0. 0. 0. 0. 0. 0. 0. 0. 0. 0. 0. 0. 1.69491526e-02 0. 0. 0. 0.
      3.38983051e-02 0. 0. 0. 0. 0. 0. 0. 0. 0. 0. 0. 1.69491526e-02 0.
      0. 0. 1.69491526e-02 0. 0. 0. 0. 0. 0. 0. 0. 0. 0. 0. 0. 0. 0. 0.
      0. 0. 0. 0. 0. 0. 0. 0. 0. 0. 0. 0. 0. 0. 0. 0. 1.69491526e-02
      1.69491526e-02 0. 0. 0. 0. 0. 0. 0. 0. 0. 0. 0. 1.69491526e-02 0.
      1.69491526e-02 0. 0. 0. 0. 0. 0. 0. 0. 0. 0. 1.69491526e-02 0.
      1.69491526e-02 0. 0. 0. 0. 0. 0. 0. 1.69491526e-02 0. 0. 0. 0. 0.
      1.69491526e-02 0. 3.38983051e-02 0. 0. 0. 0. 0. 0. 0. 0. 0. 0. 0.
      0. 0. 0. 0. 1.69491526e-02 0. 0. 0. 0. 0. 0. 0. 0. 0. 0. 0. 0. 0.
      0. 1.69491526e-02 0. 0. 0. 0. 3.38983051e-02 0. 0. 0. 0. 0. 0. 0.
      0. 0. 0. 0. 0. 0. 0. 0. 0. 0. 0. 0. 0. 0. 0. 1.69491526e-02 0. 0.
      0. 0. 0. 0. 0. 1.69491526e-02 0. 0. 0. 0. 0. 0. 0. 1.69491526e-02
      3.38983051e-02 0. 0. 0. 0. 0. 0. 3.38983051e-02 0. 0. 0. 0. 0. 0.
      0. 0. 3.38983051e-02 0. 0. 0. 0. 0. 0. 0. 0. 0. 0. 0. 0. 0.
      1.69491526e-02 0. 0. 0. 0. 0. 1.69491526e-02 0. 0. 0. 0. 0. 0. 0.
      0. 0. 0. 0. 0. 0. 0. 0. 0. 0. 0. 0. 0. 0. 0. 0. 0. 0. 0. 0. 0. 0.
      0. 0. 0. 0. 0. 0. 0. 0. 0. 0. 0. 0. 1.69491526e-02 0. 0. 0. 0. 0.
      0. 0. 0. 0. 0. 0. 0. 0. 0. 0. 1.69491526e-02 0. 0. 0. 0. 0. 0. 0.
      0. 0. 0. 0. 0. 0. 0. 0. 0. 0. 0. 0. 0. 0. 0. 0. 0. 0. 0. 0. 0. 0.
      0. 0. 0. 0. 0. 0. 0. 0. 0. 0. 0. 0. 0. 1.69491526e-02 0.
      1.69491526e-02 0. 1.69491526e-02 0. 0. 0. 0. 0. 1.69491526e-02 0.
      0. 0. 0. 0. 0. 0. 0. 0. 0. 0. 0. 0. 0. 0. 0. 0. 0. 0. 0. 0. 0. 0.
      0. 0. 0. 1.69491526e-02 0. 0. 0. 0. 0. 0. 0. 0. 1.69491526e-02
      1.69491526e-02 0. 0. 0. 0.</_>
    <_>
      0. 0. 0. 0. 0. 0. 1.88679248e-02 0. 0. 0. 0. 1.88679248e-02
      5.66037744e-02 0. 0. 0. 0. 0. 0. 0. 0. 0. 0. 0. 0. 0. 0. 0. 0. 0.
      0. 0. 0. 0. 0. 0. 0. 0. 0. 0. 0. 0. 0. 1.88679248e-02 0. 0. 0. 0.
      0. 0. 0. 1.88679248e-02 0. 0. 0. 0. 0. 0. 3.77358496e-02 0. 0. 0.
      0. 0. 0. 0. 0. 0. 0. 0. 0. 0. 0. 0. 0. 0. 1.88679248e-02 0. 0. 0.
      0. 0. 0. 3.77358496e-02 0. 0. 0. 0. 0. 0. 0. 0. 0. 0. 0.
      1.88679248e-02 0. 0. 0. 0. 0. 0. 0. 0. 0. 0. 0. 0. 0. 0. 0. 0. 0.
      0. 0. 0. 1.88679248e-02 1.88679248e-02 0. 0. 0. 0. 1.88679248e-02
      0. 0. 0. 0. 0. 0. 0. 0. 0. 0. 0. 0. 0. 0. 0. 0. 0. 0. 0. 0. 0. 0.
      0. 0. 0. 0. 0. 0. 0. 0. 0. 0. 0. 0. 0. 0. 1.88679248e-02 0. 0. 0.
      0. 0. 0. 0. 0. 0. 0. 0. 1.88679248e-02 0. 0. 1.88679248e-02 0. 0.
      0. 0. 0. 0. 0. 0. 0. 0. 1.88679248e-02 0. 0. 5.66037744e-02 0. 0.
      0. 0. 0. 0. 0. 0. 0. 0. 0. 0. 0. 0. 0. 0. 0. 0. 0. 1.88679248e-02
      0. 0. 0. 0. 0. 0. 0. 0. 0. 0. 0. 0. 0. 0. 3.77358496e-02 0. 0.
      1.88679248e-02 0. 0. 0. 0. 0. 0. 0. 0. 0. 0. 0. 0. 0. 0. 0. 0. 0.
      0. 0. 0. 0. 0. 0. 0. 0. 0. 0. 0. 0. 1.88679248e-02 0. 0. 0. 0. 0.
      1.88679248e-02 0. 0. 0. 0. 0. 0. 0. 0. 0. 0. 0. 1.88679248e-02 0.
      0. 0. 0. 0. 0. 0. 1.88679248e-02 0. 0. 0. 0. 0. 0. 0. 0. 0. 0. 0.
      0. 0. 0. 0. 0. 0. 0. 0. 1.88679248e-02 0. 0. 0. 0. 0. 0. 0. 0. 0.
      0. 0. 0. 0. 0. 1.88679248e-02 5.66037744e-02 1.88679248e-02 0. 0.
      0. 0. 0. 0. 0. 0. 0. 0. 0. 0. 0. 0. 0. 0. 0. 0. 0. 0. 0. 0. 0. 0.
      0. 0. 0. 0. 0. 0. 0. 0. 0. 0. 0. 3.77358496e-02 0. 0. 0. 0.
      1.88679248e-02 1.88679248e-02 0. 0. 0. 0. 0. 1.88679248e-02 0. 0.
      0. 0. 0. 0. 0. 0. 0. 0. 0. 0. 0. 0. 0. 0. 0. 0. 0. 0. 0. 0.
      1.88679248e-02 0. 0. 0. 0. 0. 0. 0. 1.88679248e-02 3.77358496e-02
      0. 0. 0. 0. 0. 0. 1.88679248e-02 0. 0. 0. 0. 0. 0. 0. 0. 0. 0. 0.
      0. 0. 0. 0. 1.88679248e-02 0. 0. 0. 0. 0. 0. 0. 0. 0. 0. 0.
      1.88679248e-02 0. 0. 0. 0. 1.88679248e-02 0. 0. 0. 0. 0. 0. 0. 0.
      1.88679248e-02 0. 0. 0. 0. 1.88679248e-02 0. 0. 0. 0. 0. 0. 0. 0.
      0. 0. 0. 0. 0. 0. 0. 0. 0. 0. 0. 0. 0. 0. 0. 0. 0. 0. 0. 0. 0. 0.
      0. 0. 0. 0. 0. 1.88679248e-02 0. 0. 0. 0. 0. 0. 0. 0. 0. 0.</_>
    <_>
      0. 0. 0. 0. 0. 0. 1.02040814e-02 0. 0. 0. 0. 1.02040814e-02
      2.04081628e-02 0. 0. 0. 0. 1.02040814e-02 0. 1.02040814e-02 0. 0.
      0. 0. 0. 1.02040814e-02 0. 0. 0. 0. 1.02040814e-02 0. 0. 0. 0. 0.
      0. 0. 0. 0. 0. 0. 0. 0. 0. 0. 1.02040814e-02 1.02040814e-02 0. 0.
      0. 1.02040814e-02 0. 0. 0. 0. 0. 0. 0. 1.02040814e-02 0. 0.
      2.04081628e-02 0. 0. 0. 0. 0. 0. 0. 0. 0. 2.04081628e-02 0. 0. 0.
      0. 0. 0. 0. 0. 3.06122452e-02 3.06122452e-02 0. 0. 0. 0.
      1.02040814e-02 0. 0. 0. 0. 0. 0. 0. 0. 0. 0. 0. 0. 0. 0.
      1.02040814e-02 1.02040814e-02 0. 0. 0. 0. 0. 0. 0. 0. 0. 0. 0. 0.
      0. 0. 0. 0. 0. 1.02040814e-02 0. 0. 0. 0. 1.02040814e-02 0. 0. 0.
      0. 0. 0. 0. 0. 0. 0. 0. 0. 0. 0. 0. 0. 0. 0. 0. 0. 0. 0. 0. 0. 0.
      0. 1.02040814e-02 0. 1.02040814e-02 0. 3.06122452e-02 0.
      1.02040814e-02 0. 1.02040814e-02 0. 0. 0. 0. 0. 0. 0. 0. 0.
      1.02040814e-02 0. 0. 1.02040814e-02 0. 0. 0. 1.02040814e-02 0. 0.
      1.02040814e-02 0. 0. 0. 0. 0. 0. 0. 0. 0. 0. 0. 0. 0. 0. 0. 0. 0.
      0. 0. 0. 1.02040814e-02 0. 0. 0. 1.02040814e-02 0. 1.02040814e-02
      0. 0. 0. 0. 0. 0. 0. 0. 0. 0. 0. 0. 1.02040814e-02 0.
      1.02040814e-02 0. 0. 0. 0. 0. 0. 0. 1.02040814e-02 1.02040814e-02
      0. 0. 0. 0. 0. 0. 1.02040814e-02 0. 1.02040814e-02 1.02040814e-02
      0. 0. 0. 0. 0. 0. 0. 1.02040814e-02 0. 0. 0. 0. 0. 2.04081628e-02
      0. 0. 0. 0. 0. 1.02040814e-02 0. 0. 0. 0. 0. 2.04081628e-02 0. 0.
      0. 0. 0. 1.02040814e-02 0. 1.02040814e-02 0. 0. 0. 1.02040814e-02
      0. 0. 0. 0. 0. 0. 0. 0. 0. 0. 0. 0. 1.02040814e-02 0. 0. 0. 0. 0.
      0. 0. 0. 0. 0. 0. 0. 0. 0. 1.02040814e-02 0. 0. 2.04081628e-02 0.
      0. 0. 0. 0. 0. 0. 0. 0. 0. 0. 0. 0. 0. 0. 1.02040814e-02
      1.02040814e-02 0. 0. 0. 0. 0. 0. 0. 1.02040814e-02 0. 0. 0. 0. 0.
      0. 1.02040814e-02 0. 0. 0. 0. 0. 0. 0. 0. 0. 0. 0. 1.02040814e-02
      1.02040814e-02 0. 0. 0. 2.04081628e-02 4.08163257e-02 0. 0. 0. 0.
      0. 1.02040814e-02 0. 0. 0. 0. 0. 0. 1.02040814e-02 0. 0.
      3.06122452e-02 0. 0. 0. 0. 0. 0. 0. 0. 0. 0. 0. 0. 0.
      1.02040814e-02 0. 0. 0. 0. 0. 2.04081628e-02 0. 0. 0. 0. 0.
      2.04081628e-02 0. 0. 0. 0. 1.02040814e-02 0. 0. 0. 1.02040814e-02
      0. 0. 0. 1.02040814e-02 0. 0. 0. 0. 0. 0. 0. 0. 0. 0. 0. 0. 0.
      3.06122452e-02 0. 0. 0. 0. 0. 0. 0. 0. 1.02040814e-02 0. 0. 0.
      1.02040814e-02 0. 0. 0. 0. 0. 0. 0. 0. 0. 0. 0. 0. 0.
      1.02040814e-02 0. 0. 0. 0. 0. 0. 0. 1.02040814e-02 0. 0. 0. 0. 0.
      0. 1.02040814e-02 0. 0. 0. 0. 0. 1.02040814e-02 0. 1.02040814e-02
      1.02040814e-02 0. 0. 0. 0. 0. 0. 0. 1.02040814e-02 0. 0. 0. 0. 0.
      0. 0. 0. 0. 0.</_>
    <_>
      2.08333340e-02 0. 0. 0. 0. 0. 0. 0. 0. 0. 0. 0. 8.33333358e-02 0.
      0. 0. 0. 0. 0. 0. 0. 0. 0. 0. 0. 0. 0. 0. 0. 0. 0. 0. 0. 0. 0. 0.
      0. 0. 0. 0. 0. 0. 0. 2.08333340e-02 2.08333340e-02 0. 0. 0. 0. 0.
      0. 2.08333340e-02 0. 0. 0. 0. 0. 2.08333340e-02 0. 0. 0. 0.
      4.16666679e-02 0. 0. 0. 6.25000000e-02 0. 0. 0. 0. 0. 0. 0. 0. 0.
      0. 0. 0. 0. 0. 0. 4.16666679e-02 0. 0. 0. 0. 0. 0. 0. 0. 0. 0. 0.
      0. 0. 0. 0. 0. 0. 0. 0. 2.08333340e-02 2.08333340e-02 0. 0. 0. 0.
      0. 0. 0. 0. 0. 0. 0. 0. 0. 0. 0. 0. 0. 0. 0. 0. 0. 0. 0. 0. 0. 0.
      0. 0. 0. 0. 0. 0. 0. 0. 0. 0. 0. 0. 0. 0. 0. 0. 0. 0. 0. 0. 0. 0.
      0. 0. 0. 0. 2.08333340e-02 2.08333340e-02 0. 4.16666679e-02 0. 0.
      0. 0. 0. 0. 2.08333340e-02 0. 0. 0. 2.08333340e-02 0. 0. 0.
      2.08333340e-02 0. 0. 0. 0. 0. 0. 0. 0. 0. 0. 0. 2.08333340e-02 0.
      0. 0. 0. 0. 0. 0. 0. 0. 0. 0. 0. 0. 0. 2.08333340e-02 0.
      2.08333340e-02 0. 0. 0. 0. 0. 0. 0. 0. 0. 0. 0. 0. 0. 0. 0. 0. 0.
      0. 0. 0. 0. 0. 0. 0. 0. 0. 0. 0. 0. 0. 0. 0. 0. 0. 0. 0. 0. 0. 0.
      0. 0. 0. 0. 0. 2.08333340e-02 0. 0. 2.08333340e-02 0. 0. 0. 0.
      4.16666679e-02 0. 0. 0. 0. 0. 0. 0. 0. 0. 0. 0. 0. 0. 0. 0. 0. 0.
      0. 0. 0. 0. 0. 0. 0. 0. 0. 0. 0. 0. 0. 0. 0. 0. 0. 0. 0. 0. 0. 0.
      0. 0. 0. 0. 0. 0. 2.08333340e-02 0. 0. 0. 0. 0. 0. 0. 0. 0. 0. 0.
      0. 0. 0. 2.08333340e-02 2.08333340e-02 0. 0. 0. 0. 0. 0. 0. 0.
      2.08333340e-02 0. 0. 0. 0. 0. 0. 0. 0. 0. 0. 0. 0. 0. 0. 0. 0. 0.
      0. 0. 0. 0. 0. 0. 0. 2.08333340e-02 0. 0. 2.08333340e-02 0. 0. 0.
      0. 0. 0. 0. 0. 2.08333340e-02 0. 0. 2.08333340e-02 2.08333340e-02
      0. 0. 0. 0. 0. 0. 0. 0. 2.08333340e-02 0. 0. 0. 0. 0. 0. 0. 0. 0.
      0. 0. 0. 0. 0. 0. 0. 0. 0. 0. 0. 0. 0. 0. 0. 0. 0. 0. 0. 0. 0. 0.
      0. 0. 0. 0. 0. 0. 0. 0. 0. 0. 0. 0. 0. 0. 0. 0. 0. 0. 0. 0. 0. 0.
      0. 0. 0. 2.08333340e-02 2.08333340e-02 0. 0. 0. 2.08333340e-02 0.
      0. 0. 0. 0. 0. 0. 0. 0. 0. 0. 0. 0. 0. 0. 0. 0. 2.08333340e-02 0.
      0. 0. 0. 0. 0. 0. 0. 0. 0. 0. 0. 0. 0. 0. 0. 0. 0. 0. 0.
      4.16666679e-02 0. 0. 0. 0. 0. 0. 0. 0. 0. 0. 0. 0. 0. 0. 0. 0. 0.
      0. 0. 0. 0.</_>
    <_>
      0. 0. 0. 0. 1.56250000e-02 0. 0. 0. 0. 0. 0. 0. 0. 0. 0. 0. 0. 0.
      0. 0. 0. 0. 6.25000000e-02 0. 0. 0. 0. 0. 0. 1.56250000e-02 0. 0.
      0. 0. 0. 0. 1.56250000e-02 0. 3.12500000e-02 0. 1.56250000e-02 0.
      0. 4.68750000e-02 0. 1.56250000e-02 0. 0. 0. 1.56250000e-02 0. 0.
      0. 0. 0. 0. 0. 0. 1.56250000e-02 0. 0. 0. 0. 0. 0. 0. 0.
      3.12500000e-02 0. 0. 0. 0. 0. 0. 0. 0. 0. 0. 1.56250000e-02 0. 0.
      1.56250000e-02 0. 0. 0. 0. 0. 0. 0. 0. 0. 1.56250000e-02 0. 0. 0.
      0. 0. 0. 0. 0. 0. 1.56250000e-02 0. 0. 0. 0. 0. 0. 0. 0. 0.
      1.56250000e-02 0. 0. 0. 0. 0. 0. 0. 0. 0. 0. 0. 0. 0.
      1.56250000e-02 0. 0. 0. 0. 0. 0. 0. 0. 0. 0. 0. 0. 0.
      1.56250000e-02 0. 0. 0. 0. 1.56250000e-02 0. 0. 0. 0. 0. 0. 0. 0.
      0. 0. 0. 1.56250000e-02 0. 0. 1.56250000e-02 0. 0. 0. 0. 0. 0. 0.
      0. 0. 0. 0. 0. 0. 0. 0. 0. 0. 0. 0. 0. 0. 0. 0. 0. 0. 0. 0.
      1.56250000e-02 0. 0. 0. 0. 0. 0. 0. 1.56250000e-02 0. 0. 0. 0. 0.
      0. 0. 0. 3.12500000e-02 0. 0. 0. 0. 0. 0. 0. 0. 0. 0. 0. 0. 0. 0.
      0. 0. 0. 0. 0. 0. 3.12500000e-02 0. 0. 0. 0. 0. 0. 1.56250000e-02
      0. 0. 0. 0. 0. 0. 0. 0. 3.12500000e-02 0. 0. 1.56250000e-02 0. 0.
      0. 0. 0. 0. 0. 0. 0. 1.56250000e-02 0. 0. 0. 0. 0. 0. 0. 0. 0. 0.
      0. 0. 0. 1.56250000e-02 0. 0. 0. 0. 0. 0. 0. 0. 1.56250000e-02 0.
      0. 0. 0. 0. 0. 0. 0. 0. 0. 1.56250000e-02 0. 0. 0. 0. 0. 0. 0. 0.
      0. 0. 0. 1.56250000e-02 0. 0. 0. 0. 0. 0. 0. 0. 0. 0.
      1.56250000e-02 0. 0. 0. 0. 1.56250000e-02 0. 0. 0. 0. 0. 0. 0. 0.
      0. 0. 0. 0. 0. 0. 1.56250000e-02 0. 0. 1.56250000e-02 0.
      3.12500000e-02 0. 0. 0. 0. 0. 0. 0. 0. 0. 0. 0. 0. 0. 0. 0. 0. 0.
      0. 0. 0. 0. 0. 0. 0. 0. 0. 0. 0. 0. 0. 0. 0. 1.56250000e-02 0. 0.
      0. 0. 0. 0. 0. 0. 0. 0. 0. 0. 0. 0. 0. 1.56250000e-02
      1.56250000e-02 0. 0. 0. 0. 0. 0. 0. 0. 0. 0. 0. 0. 0. 0. 0. 0. 0.
      0. 1.56250000e-02 0. 1.56250000e-02 0. 0. 0. 0. 0. 3.12500000e-02
      0. 0. 0. 1.56250000e-02 0. 0. 0. 0. 0. 0. 0. 0. 0. 1.56250000e-02
      0. 0. 0. 0. 0. 0. 0. 0. 0. 0. 0. 0. 0. 0. 0. 0. 0. 0. 0. 0. 0. 0.
      0. 0. 0. 0. 0. 1.56250000e-02 0. 0. 3.12500000e-02 0. 0. 0. 0. 0.
      0. 0. 0. 0. 1.56250000e-02 0. 0. 1.56250000e-02 0. 0. 0. 0. 0. 0.
      0. 0. 0. 0. 0. 0. 0. 0. 0. 0. 0. 1.56250000e-02 0. 0. 0. 0. 0. 0.
      0. 0. 0. 0.</_>
    <_>
      0. 0. 0. 0. 0. 0. 4.54545468e-02 0. 0. 4.54545468e-02 0. 0. 0. 0.
      0. 0. 0. 0. 0. 0. 0. 0. 0. 0. 0. 0. 0. 0. 0. 0. 0. 0. 0. 0. 0. 0.
      0. 0. 0. 0. 0. 0. 0. 0. 0. 4.54545468e-02 4.54545468e-02 0. 0. 0.
      0. 0. 0. 0. 0. 0. 0. 0. 0. 0. 0. 0. 0. 0. 0. 0. 0. 0. 0. 0. 0. 0.
      0. 0. 0. 0. 0. 0. 0. 0. 0. 0. 0. 0. 0. 0. 0. 0. 0. 0. 0. 0. 0. 0.
      0. 0. 0. 0. 0. 0. 0. 0. 0. 0. 0. 0. 0. 0. 0. 0. 0. 0. 0. 0. 0. 0.
      0. 0. 0. 0. 0. 0. 0. 0. 0. 0. 0. 0. 0. 0. 0. 0. 0. 0. 0. 0. 0. 0.
      0. 0. 0. 0. 0. 0. 0. 0. 0. 0. 0. 0. 0. 0. 0. 0. 0. 0. 0. 0. 0. 0.
      0. 0. 0. 4.54545468e-02 0. 0. 0. 0. 0. 0. 0. 0. 0. 0. 0. 0. 0. 0.
      0. 0. 0. 0. 0. 0. 0. 0. 0. 0. 0. 0. 0. 0. 0. 0. 0. 0. 0. 0. 0. 0.
      0. 0. 0. 0. 0. 0. 0. 0. 0. 0. 0. 0. 0. 0. 0. 0. 0. 0. 0. 0. 0. 0.
      0. 0. 0. 0. 0. 0. 0. 0. 0. 0. 0. 0. 0. 0. 0. 0. 4.54545468e-02 0.
      0. 0. 0. 0. 0. 0. 0. 0. 0. 0. 4.54545468e-02 0. 0. 0. 0. 0. 0. 0.
      0. 0. 0. 0. 0. 0. 0. 0. 0. 0. 0. 4.54545468e-02 0. 0. 0. 0. 0. 0.
      0. 4.54545468e-02 0. 0. 0. 0. 0. 4.54545468e-02 0. 0. 0. 0. 0. 0.
      0. 0. 0. 0. 0. 0. 0. 0. 0. 0. 0. 0. 0. 0. 0. 0. 0. 0. 0. 0.
      4.54545468e-02 0. 0. 0. 0. 0. 0. 4.54545468e-02 0. 0. 0. 0. 0. 0.
      0. 0. 0. 0. 0. 0. 0. 0. 0. 0. 0. 0. 0. 0. 0. 0. 0. 0. 0. 0. 0. 0.
      0. 0. 0. 0. 0. 0. 0. 0. 0. 0. 0. 0. 0. 0. 0. 9.09090936e-02 0. 0.
      0. 0. 0. 0. 0. 0. 0. 0. 0. 0. 0. 0. 0. 0. 0. 0. 0. 0. 0. 0. 0. 0.
      0. 0. 0. 4.54545468e-02 0. 0. 0. 0. 0. 0. 0. 0. 0. 0. 0. 0. 0. 0.
      0. 0. 0. 0. 4.54545468e-02 0. 0. 0. 0. 0. 0. 0. 4.54545468e-02 0.
      0. 0. 0. 0. 0. 0. 0. 0. 4.54545468e-02 0. 0. 0. 0. 0. 0. 0. 0. 0.
      0. 0. 0. 0. 0. 0. 0. 0. 0. 0. 0. 0. 0. 0. 0. 0. 0. 0. 0.
      4.54545468e-02 0. 0. 0. 0. 0. 0. 0. 0. 0. 0. 0. 0. 0. 0. 0. 0. 0.
      0. 0. 0. 0. 0. 9.09090936e-02 0. 0. 0. 4.54545468e-02 0. 0. 0. 0.
      0. 0. 0. 0. 0. 0. 0. 0. 0. 0. 0. 0. 0.</_>
    <_>
      0. 0. 0. 0. 0. 0. 0. 0. 0. 0. 0. 0. 2.77777780e-02 0. 0. 0. 0. 0.
      0. 0. 0. 0. 2.77777780e-02 0. 0. 0. 0. 0. 0. 0. 0. 0. 0. 0. 0.
      2.77777780e-02 0. 0. 0. 0. 0. 0. 0. 0. 2.77777780e-02 0. 0. 0. 0.
      0. 0. 0. 0. 0. 0. 0. 0. 0. 0. 0. 0. 0. 0. 0. 0. 0. 2.77777780e-02
      0. 0. 0. 0. 0. 0. 0. 0. 0. 0. 0. 2.77777780e-02 0. 0.
      2.77777780e-02 0. 0. 0. 0. 0. 0. 0. 0. 0. 0. 0. 0. 0. 0. 0. 0. 0.
      0. 0. 0. 0. 0. 0. 0. 0. 0. 2.77777780e-02 0. 0. 0. 0. 0. 0. 0. 0.
      0. 0. 0. 0. 0. 0. 0. 0. 0. 0. 0. 0. 0. 0. 0. 0. 0. 0. 0. 0. 0. 0.
      0. 0. 0. 0. 0. 0. 0. 0. 0. 0. 0. 0. 0. 0. 0. 0. 0. 0. 0. 0. 0. 0.
      0. 0. 0. 0. 0. 0. 0. 0. 0. 0. 0. 0. 0. 2.77777780e-02 0. 0. 0. 0.
      0. 0. 0. 0. 0. 0. 0. 0. 0. 0. 0. 0. 2.77777780e-02 0. 0. 0. 0. 0.
      0. 0. 0. 0. 0. 0. 0. 0. 0. 0. 0. 0. 0. 2.77777780e-02 0. 0. 0. 0.
      0. 0. 0. 0. 0. 0. 0. 0. 0. 0. 0. 0. 0. 0. 0. 0. 0. 0. 0. 0. 0. 0.
      0. 0. 0. 0. 0. 0. 0. 0. 0. 0. 0. 0. 0. 2.77777780e-02 0. 0. 0. 0.
      0. 5.55555560e-02 0. 0. 0. 0. 0. 0. 0. 0. 0. 0. 0. 0. 0. 0. 0. 0.
      0. 0. 0. 0. 0. 0. 0. 0. 0. 0. 0. 0. 0. 0. 0. 0. 0. 0. 0. 0. 0. 0.
      0. 0. 0. 0. 0. 0. 2.77777780e-02 0. 0. 0. 0. 0. 0. 0. 0. 0.
      5.55555560e-02 0. 0. 0. 0. 2.77777780e-02 0. 2.77777780e-02
      2.77777780e-02 0. 0. 0. 0. 0. 0. 0. 0. 0. 0. 0. 0. 0.
      2.77777780e-02 2.77777780e-02 0. 0. 0. 0. 0. 0. 0. 0. 0. 0. 0. 0.
      0. 0. 0. 0. 0. 0. 0. 0. 0. 0. 0. 0. 0. 0. 0. 0. 0. 0. 0. 0.
      8.33333358e-02 0. 0. 0. 0. 0. 0. 0. 0. 0. 0. 0. 0. 0. 0. 0. 0. 0.
      0. 0. 0. 0. 0. 0. 2.77777780e-02 0. 0. 0. 0. 0. 0. 2.77777780e-02
      0. 0. 0. 0. 0. 0. 0. 0. 0. 0. 0. 0. 0. 2.77777780e-02 0. 0. 0.
      2.77777780e-02 0. 0. 0. 0. 0. 0. 0. 0. 0. 0. 0. 0. 0. 0. 0. 0. 0.
      2.77777780e-02 0. 0. 0. 0. 0. 0. 0. 0. 0. 0. 0. 0. 0. 0. 0. 0. 0.
      0. 0. 0. 2.77777780e-02 0. 0. 0. 5.55555560e-02 0. 0. 0. 0. 0. 0.
      0. 0. 0. 0. 0. 0. 0. 0. 0. 0. 0. 0. 5.55555560e-02 0. 0. 0. 0. 0.
      0. 2.77777780e-02 0. 0. 0. 0. 0. 0. 0. 0. 0. 0. 0. 0. 0. 0.</_>
    <_>
      0. 0. 1.75438598e-02 0. 0. 0. 0. 0. 0. 0. 0. 0. 7.01754391e-02 0.
      0. 0. 0. 0. 0. 0. 0. 0. 0. 0. 0. 0. 0. 0. 0. 1.75438598e-02 0. 0.
      0. 0. 0. 0. 0. 0. 0. 0. 0. 0. 0. 1.75438598e-02 0. 0. 0. 0. 0. 0.
      0. 1.75438598e-02 0. 0. 0. 0. 0. 0. 0. 0. 0. 0. 1.75438598e-02 0.
      0. 0. 0. 0. 0. 0. 0. 0. 0. 0. 0. 0. 0. 0. 0. 0. 0. 1.75438598e-02
      0. 1.75438598e-02 0. 0. 0. 0. 0. 0. 0. 0. 0. 0. 0. 0. 0. 0. 0. 0.
      0. 0. 0. 0. 0. 0. 0. 0. 0. 0. 0. 0. 0. 0. 0. 0. 0. 0. 0. 0. 0. 0.
      0. 0. 0. 0. 0. 0. 0. 0. 0. 0. 0. 0. 0. 0. 1.75438598e-02 0. 0. 0.
      0. 0. 0. 0. 0. 0. 0. 0. 0. 0. 0. 0. 0. 0. 0. 0. 0. 0. 0.
      3.50877196e-02 0. 0. 0. 0. 0. 0. 0. 0. 0. 0. 0. 0. 0.
      1.75438598e-02 1.75438598e-02 0. 0. 0. 0. 0. 0. 0. 0. 0. 0. 0.
      1.75438598e-02 0. 0. 0. 0. 0. 0. 0. 0. 0. 0. 0. 0. 0. 0. 0. 0. 0.
      0. 0. 0. 0. 0. 0. 0. 0. 0. 0. 0. 0. 0. 0. 3.50877196e-02
      1.75438598e-02 0. 0. 0. 0. 0. 0. 0. 0. 3.50877196e-02 0. 0. 0. 0.
      1.75438598e-02 0. 5.26315793e-02 0. 0. 0. 0. 0. 0. 0. 0. 0. 0. 0.
      1.75438598e-02 0. 0. 0. 0. 0. 0. 0. 0. 0. 0. 0. 0. 1.75438598e-02
      0. 0. 0. 0. 0. 0. 0. 0. 0. 0. 1.75438598e-02 1.75438598e-02 0. 0.
      0. 0. 0. 0. 1.75438598e-02 0. 0. 0. 0. 0. 0. 0. 0. 0. 0. 0.
      1.75438598e-02 1.75438598e-02 0. 0. 0. 0. 0. 0. 0. 1.75438598e-02
      0. 1.75438598e-02 0. 0. 0. 0. 0. 0. 0. 0. 0. 0. 0. 0.
      1.75438598e-02 0. 1.75438598e-02 5.26315793e-02 0. 0. 0. 0. 0. 0.
      0. 0. 0. 0. 0. 0. 0. 0. 0. 0. 0. 0. 0. 0. 0. 0. 0. 0. 0. 0.
      1.75438598e-02 0. 0. 0. 0. 0. 0. 0. 0. 0. 1.75438598e-02 0. 0. 0.
      0. 0. 0. 0. 0. 0. 0. 0. 0. 1.75438598e-02 0. 0. 0. 0. 0. 0. 0.
      1.75438598e-02 0. 0. 0. 0. 0. 0. 0. 0. 0. 0. 0. 0. 0. 0. 0. 0.
      1.75438598e-02 0. 0. 0. 0. 0. 1.75438598e-02 0. 0. 0.
      3.50877196e-02 0. 0. 0. 0. 0. 0. 0. 0. 0. 0. 0. 0. 0.
      1.75438598e-02 0. 0. 0. 0. 0. 0. 0. 0. 0. 0. 0. 0. 0. 0. 0. 0. 0.
      1.75438598e-02 0. 0. 0. 5.26315793e-02 0. 0. 0. 0. 0. 0. 0. 0.
      1.75438598e-02 0. 1.75438598e-02 0. 0. 0. 0. 0. 0. 0. 0. 0. 0. 0.
      0. 0. 0. 0. 0. 0. 0. 0. 0. 0. 0. 0. 0. 0. 0. 1.75438598e-02 0. 0.
      0. 0. 0. 0. 0. 0. 0. 0. 0. 0. 0. 1.75438598e-02 0. 0. 0. 0. 0. 0.
      0. 0.</_>
    <_>
      0. 0. 0. 0. 0. 0. 3.99999991e-02 0. 0. 0. 0. 0. 1.33333337e-02 0.
      0. 0. 0. 0. 0. 0. 1.33333337e-02 1.33333337e-02 0. 0. 0. 0. 0. 0.
      0. 0. 1.33333337e-02 0. 0. 1.33333337e-02 0. 1.33333337e-02 0. 0.
      0. 0. 0. 0. 0. 0. 1.33333337e-02 0. 0. 0. 0. 0. 0. 0. 0.
      2.66666673e-02 3.99999991e-02 0. 1.33333337e-02 0. 0. 0. 0. 0. 0.
      0. 0. 1.33333337e-02 0. 0. 0. 1.33333337e-02 0. 0. 0. 0. 0. 0.
      1.33333337e-02 0. 0. 0. 0. 2.66666673e-02 0. 0. 1.33333337e-02 0.
      0. 0. 0. 0. 0. 0. 0. 0. 0. 0. 0. 0. 0. 0. 1.33333337e-02 0. 0.
      1.33333337e-02 0. 0. 0. 0. 0. 0. 0. 0. 0. 0. 0. 0. 0. 0. 0. 0. 0.
      0. 0. 0. 0. 0. 0. 0. 1.33333337e-02 0. 0. 0. 1.33333337e-02 0. 0.
      0. 0. 0. 0. 0. 1.33333337e-02 0. 0. 1.33333337e-02 0. 0.
      1.33333337e-02 0. 0. 0. 0. 0. 0. 0. 0. 0. 0. 0. 0. 1.33333337e-02
      0. 0. 0. 0. 0. 0. 0. 0. 0. 0. 0. 0. 0. 0. 0. 0. 0. 0. 0. 0. 0. 0.
      0. 0. 0. 0. 0. 0. 0. 1.33333337e-02 0. 0. 0. 0. 0. 0. 0. 0. 0. 0.
      0. 0. 0. 0. 0. 0. 0. 0. 0. 0. 0. 0. 0. 0. 0. 0. 0. 0. 0. 0. 0. 0.
      0. 0. 0. 0. 0. 0. 1.33333337e-02 0. 0. 2.66666673e-02
      1.33333337e-02 0. 1.33333337e-02 2.66666673e-02 0. 0. 0. 0. 0.
      1.33333337e-02 1.33333337e-02 0. 0. 1.33333337e-02 0. 0. 0. 0.
      1.33333337e-02 0. 0. 0. 0. 0. 0. 0. 0. 0. 0. 0. 0. 0. 0. 0. 0.
      1.33333337e-02 1.33333337e-02 0. 0. 0. 0. 0. 0. 0. 0. 0. 0. 0. 0.
      1.33333337e-02 0. 0. 1.33333337e-02 0. 0. 1.33333337e-02 0. 0.
      1.33333337e-02 0. 0. 1.33333337e-02 0. 0. 1.33333337e-02 0. 0. 0.
      0. 1.33333337e-02 1.33333337e-02 0. 0. 0. 1.33333337e-02 0. 0.
      1.33333337e-02 0. 0. 0. 1.33333337e-02 0. 0. 0. 0. 1.33333337e-02
      1.33333337e-02 0. 0. 0. 0. 0. 0. 0. 0. 1.33333337e-02 0. 0. 0. 0.
      0. 0. 0. 0. 0. 0. 0. 0. 0. 0. 0. 0. 0. 0. 0. 0. 0. 0. 0.
      1.33333337e-02 1.33333337e-02 1.33333337e-02 1.33333337e-02 0. 0.
      0. 0. 0. 0. 0. 0. 1.33333337e-02 0. 0. 0. 0. 0. 0. 0. 0.
      1.33333337e-02 1.33333337e-02 0. 0. 0. 0. 0. 0. 0. 0. 0. 0. 0. 0.
      0. 0. 1.33333337e-02 0. 0. 1.33333337e-02 0. 0. 0. 0. 0. 0.
      1.33333337e-02 0. 0. 0. 0. 0. 0. 0. 0. 0. 0. 1.33333337e-02 0. 0.
      0. 0. 0. 0. 0. 0. 0. 0. 0. 0. 0. 0. 0. 0. 0. 0. 0. 0. 0. 0.
      1.33333337e-02 0. 0. 0. 0. 0. 2.66666673e-02 0. 0. 0. 0. 0. 0. 0.
      0. 0. 0. 0. 0. 0. 0. 0. 1.33333337e-02 0. 0. 0. 0. 0. 0. 0. 0. 0.
      0. 0. 0. 0. 0. 0. 0. 0. 0. 0. 0. 0. 0. 0. 0. 0. 0. 0. 0. 0. 0. 0.
      0. 0. 1.33333337e-02 0. 0. 0. 0. 0. 0. 0. 0. 1.33333337e-02 0.</_>
    <_>
      0. 0. 0. 0. 0. 0. 0. 0. 3.63636352e-02 1.81818176e-02 0. 0.
      1.81818176e-02 0. 0. 0. 0. 0. 0. 0. 0. 0. 0. 0. 0. 0. 0. 0. 0.
      1.81818176e-02 3.63636352e-02 1.81818176e-02 0. 0. 0.
      3.63636352e-02 0. 0. 0. 0. 0. 0. 0. 3.63636352e-02 0. 0. 0. 0. 0.
      0. 0. 0. 0. 0. 0. 0. 0. 0. 0. 0. 0. 0. 1.81818176e-02 0. 0. 0. 0.
      0. 0. 0. 0. 0. 0. 0. 0. 0. 0. 0. 0. 0. 0. 0. 0. 1.81818176e-02 0.
      0. 3.63636352e-02 0. 0. 0. 0. 0. 0. 0. 0. 0. 0. 0. 0. 0. 0. 0. 0.
      0. 0. 0. 0. 0. 0. 0. 0. 3.63636352e-02 0. 0. 0. 0. 0. 0. 0. 0. 0.
      0. 0. 0. 0. 0. 0. 0. 0. 0. 0. 0. 0. 0. 0. 0. 1.81818176e-02 0. 0.
      0. 0. 0. 0. 0. 0. 0. 0. 0. 0. 0. 0. 1.81818176e-02 0. 0.
      1.81818176e-02 0. 0. 0. 0. 0. 0. 0. 0. 0. 0. 0. 0. 0. 0. 0. 0. 0.
      0. 0. 0. 0. 0. 0. 0. 0. 0. 0. 0. 0. 0. 0. 0. 0. 0. 0. 0. 0. 0. 0.
      0. 1.81818176e-02 0. 0. 0. 0. 0. 3.63636352e-02 0. 0. 0. 0. 0. 0.
      0. 0. 0. 0. 0. 0. 0. 0. 0. 0. 0. 0. 0. 0. 0. 0. 0. 0. 0. 0. 0. 0.
      0. 0. 1.81818176e-02 0. 0. 0. 0. 0. 0. 0. 0. 1.81818176e-02 0. 0.
      0. 0. 0. 0. 0. 0. 0. 0. 0. 0. 0. 0. 3.63636352e-02 1.81818176e-02
      0. 0. 0. 0. 0. 1.81818176e-02 0. 0. 0. 0. 0. 0. 0. 0. 0. 0. 0. 0.
      0. 1.81818176e-02 0. 0. 0. 0. 0. 0. 0. 0. 0. 0. 0. 0. 0. 0. 0. 0.
      0. 0. 0. 0. 0. 0. 0. 0. 1.81818176e-02 0. 1.81818176e-02 0. 0. 0.
      0. 0. 0. 0. 0. 0. 0. 0. 0. 0. 3.63636352e-02 0. 0. 0. 0. 0. 0. 0.
      0. 0. 0. 0. 0. 0. 0. 0. 0. 0. 0. 1.81818176e-02 0. 0. 0.
      1.81818176e-02 0. 0. 0. 0. 0. 0. 0. 0. 0. 0. 0. 0. 0.
      1.81818176e-02 0. 0. 0. 0. 0. 0. 0. 0. 0. 0. 0. 0. 0. 0. 0. 0. 0.
      0. 0. 0. 0. 0. 0. 0. 0. 0. 0. 1.81818176e-02 0. 0. 0. 0. 0. 0. 0.
      0. 1.81818176e-02 0. 0. 0. 0. 0. 0. 0. 0. 0. 0. 1.81818176e-02 0.
      0. 0. 0. 0. 0. 0. 0. 0. 0. 0. 0. 0. 0. 0. 0. 0. 0. 0. 0. 0.
      5.45454547e-02 0. 9.09090862e-02 0. 0. 0. 0. 0. 0. 0. 0. 0. 0.
      1.81818176e-02 0. 0. 0. 0. 0. 0. 0. 0. 1.81818176e-02 0. 0. 0. 0.
      0. 0. 0. 0. 0. 0. 0. 0. 0. 0. 0. 0. 1.81818176e-02 0. 0. 0. 0. 0.
      0. 0. 0. 0. 0. 0. 0. 0. 1.81818176e-02 0. 3.63636352e-02 0. 0. 0.
      0. 0. 0. 0. 0. 0. 0. 0. 0. 0. 0. 0. 0. 0. 0. 0.</_>
    <_>
      0. 0. 0. 0. 0. 0. 0. 0. 0. 0. 0. 0. 2.12765951e-02 0. 0. 0. 0. 0.
      0. 2.12765951e-02 0. 0. 0. 0. 0. 0. 0. 0. 0. 0. 0. 0. 0. 0. 0. 0.
      0. 0. 0. 0. 0. 0. 0. 0. 0. 0. 0. 0. 0. 0. 0. 0. 0. 0. 0. 0. 0. 0.
      0. 0. 0. 0. 0. 0. 0. 0. 0. 0. 0. 0. 0. 0. 0. 0. 0. 0. 0. 0. 0. 0.
      0. 8.51063803e-02 0. 0. 0. 0. 0. 2.12765951e-02 0. 0. 0.
      2.12765951e-02 0. 0. 0. 0. 0. 0. 0. 0. 0. 0. 2.12765951e-02 0. 0.
      0. 0. 0. 0. 0. 0. 0. 0. 0. 0. 0. 0. 0. 0. 0. 0. 0. 0. 0. 0. 0. 0.
      0. 0. 0. 0. 0. 0. 0. 0. 0. 0. 0. 0. 0. 0. 0. 0. 0. 0. 0. 0. 0. 0.
      0. 0. 0. 0. 0. 0. 0. 0. 2.12765951e-02 0. 1.06382973e-01 0. 0. 0.
      1.06382973e-01 0. 0. 0. 0. 0. 0. 0. 0. 0. 0. 2.12765951e-02 0. 0.
      0. 0. 0. 0. 0. 0. 0. 0. 0. 0. 0. 2.12765951e-02 0. 0. 0. 0. 0. 0.
      0. 0. 0. 0. 0. 0. 0. 0. 0. 0. 0. 0. 0. 0. 0. 0. 2.12765951e-02 0.
      0. 0. 0. 0. 0. 0. 0. 0. 0. 0. 0. 0. 0. 4.25531901e-02 0. 0. 0. 0.
      0. 0. 0. 0. 0. 0. 2.12765951e-02 2.12765951e-02 0. 0. 0. 0. 0. 0.
      0. 0. 0. 0. 0. 0. 0. 0. 0. 0. 0. 0. 0. 0. 0. 0. 0. 0. 0. 0. 0. 0.
      0. 0. 0. 0. 0. 0. 0. 0. 0. 0. 0. 0. 2.12765951e-02 0. 0. 0. 0. 0.
      0. 0. 0. 0. 0. 0. 0. 0. 0. 0. 0. 0. 0. 0. 0. 0. 0. 0. 0. 0. 0. 0.
      0. 0. 0. 0. 2.12765951e-02 0. 0. 0. 0. 0. 2.12765951e-02 0. 0. 0.
      0. 0. 0. 0. 0. 0. 0. 0. 0. 0. 0. 0. 0. 0. 0. 0. 0. 0. 0. 0. 0. 0.
      0. 0. 0. 0. 0. 0. 0. 2.12765951e-02 0. 0. 0. 0. 2.12765951e-02 0.
      0. 0. 0. 0. 0. 0. 0. 0. 0. 0. 4.25531901e-02 0. 0. 0. 0. 0. 0. 0.
      0. 0. 0. 0. 0. 0. 0. 0. 0. 0. 0. 0. 2.12765951e-02 2.12765951e-02
      0. 0. 0. 0. 0. 0. 0. 0. 0. 2.12765951e-02 0. 0. 0. 0. 0. 0. 0. 0.
      0. 0. 0. 0. 0. 0. 0. 0. 0. 0. 0. 0. 0. 0. 0. 0. 2.12765951e-02 0.
      0. 0. 0. 0. 0. 0. 0. 0. 0. 2.12765951e-02 0. 0. 0. 0. 0. 0. 0. 0.
      0. 2.12765951e-02 0. 0. 0. 0. 0. 0. 0. 0. 0. 0. 0. 0. 0. 0. 0. 0.
      0. 0. 0. 0. 0. 0. 0. 0. 0. 0. 0. 0. 0. 0. 0. 0. 0. 4.25531901e-02
      0. 0. 0. 0. 0. 0. 4.25531901e-02 0. 0. 0. 0. 6.38297871e-02 0. 0.
      0. 0. 0. 0. 0. 0. 0.</_>
    <_>
      0. 0. 0. 0. 0. 0. 0. 3.70370373e-02 0. 0. 0. 0. 7.40740746e-02 0.
      0. 0. 0. 0. 0. 0. 0. 0. 0. 0. 0. 0. 0. 0. 0. 0. 0. 0. 0. 0. 0. 0.
      0. 0. 0. 0. 0. 0. 0. 0. 3.70370373e-02 0. 0. 0. 0. 0. 0. 0. 0. 0.
      0. 0. 0. 0. 0. 0. 0. 0. 0. 0. 0. 0. 7.40740746e-02 3.70370373e-02
      0. 0. 0. 0. 0. 0. 0. 0. 0. 0. 0. 3.70370373e-02 0. 0.
      3.70370373e-02 0. 0. 0. 0. 0. 0. 0. 0. 0. 0. 0. 0. 0. 0. 0. 0. 0.
      0. 0. 0. 0. 0. 0. 0. 0. 0. 0. 0. 0. 0. 0. 0. 0. 3.70370373e-02 0.
      0. 0. 0. 0. 0. 0. 0. 0. 0. 0. 0. 0. 0. 0. 0. 0. 0. 0. 0. 0. 0. 0.
      0. 0. 0. 0. 0. 0. 0. 0. 0. 0. 0. 0. 0. 0. 0. 0. 3.70370373e-02 0.
      0. 3.70370373e-02 0. 0. 0. 0. 0. 0. 0. 0. 0. 0. 0. 0. 0. 0. 0. 0.
      3.70370373e-02 0. 3.70370373e-02 0. 0. 0. 0. 0. 0. 0. 0. 0.
      3.70370373e-02 0. 0. 0. 0. 0. 0. 0. 0. 0. 0. 0. 0. 0. 0. 0. 0. 0.
      0. 0. 0. 0. 0. 3.70370373e-02 0. 0. 0. 0. 3.70370373e-02 0. 0. 0.
      0. 0. 0. 0. 0. 0. 0. 0. 0. 0. 0. 0. 0. 0. 0. 0. 0. 0. 0. 0. 0. 0.
      0. 0. 0. 0. 0. 0. 0. 0. 0. 0. 0. 0. 0. 0. 0. 0. 0. 0. 0. 0. 0. 0.
      0. 0. 0. 0. 0. 0. 0. 0. 0. 0. 0. 0. 0. 0. 0. 3.70370373e-02 0. 0.
      0. 0. 0. 0. 0. 0. 0. 0. 0. 0. 0. 0. 0. 0. 0. 0. 0. 0. 0. 0. 0. 0.
      0. 0. 0. 0. 0. 0. 0. 0. 0. 0. 0. 0. 0. 0. 0. 3.70370373e-02 0. 0.
      0. 0. 0. 0. 0. 0. 0. 0. 0. 0. 0. 0. 0. 0. 0. 0. 0. 0. 0. 0. 0. 0.
      0. 0. 0. 0. 0. 0. 0. 0. 0. 0. 0. 0. 0. 0. 0. 0. 0. 0. 0. 0. 0. 0.
      0. 0. 0. 0. 0. 0. 0. 0. 0. 0. 0. 0. 0. 0. 0. 0. 0. 0. 0.
      3.70370373e-02 0. 0. 0. 0. 0. 0. 0. 0. 0. 0. 0. 0. 0. 0. 0. 0. 0.
      3.70370373e-02 0. 0. 0. 0. 0. 0. 0. 0. 0. 0. 0. 0. 0. 0. 0. 0. 0.
      0. 0. 0. 0. 3.70370373e-02 0. 0. 0. 0. 0. 0. 0. 0. 1.11111112e-01
      0. 0. 0. 0. 0. 0. 0. 0. 0. 3.70370373e-02 0. 0. 0. 0. 0. 0. 0. 0.
      0. 0. 0. 0. 0. 0. 0. 0. 0. 0. 0. 0. 0. 0. 0. 0. 0. 0. 0. 0. 0. 0.
      0. 0. 0. 3.70370373e-02 0. 0. 0. 0. 0. 0. 0. 0. 0. 0. 0. 0. 0. 0.
      0. 0. 0. 0. 0. 0. 0.</_>
    <_>
      0. 0. 0. 0. 0. 0. 0. 0. 0. 0. 1.81818176e-02 0. 9.09090862e-02 0.
      0. 0. 0. 0. 0. 0. 0. 0. 0. 0. 0. 0. 0. 0. 0. 1.81818176e-02
      1.81818176e-02 0. 0. 0. 0. 0. 0. 0. 0. 0. 0. 0. 0. 0. 0. 0. 0. 0.
      0. 0. 0. 0. 0. 0. 0. 0. 0. 0. 0. 0. 0. 0. 1.81818176e-02 0. 0. 0.
      1.81818176e-02 0. 0. 0. 1.81818176e-02 0. 0. 0. 0. 0. 0. 0. 0. 0.
      0. 0. 0. 0. 0. 0. 0. 0. 0. 0. 0. 0. 0. 0. 0. 0. 0. 0. 0. 0. 0. 0.
      0. 0. 0. 0. 0. 0. 0. 0. 0. 1.81818176e-02 0. 0. 0. 0. 0. 0. 0. 0.
      0. 0. 1.81818176e-02 1.81818176e-02 0. 0. 0. 1.81818176e-02 0. 0.
      0. 0. 0. 0. 0. 0. 0. 0. 0. 0. 1.81818176e-02 0. 0. 0. 0. 0. 0. 0.
      0. 0. 0. 1.81818176e-02 0. 0. 0. 0. 0. 0. 0. 0. 0. 0. 0. 0. 0. 0.
      0. 0. 0. 0. 0. 0. 0. 0. 3.63636352e-02 0. 0. 0. 0. 0.
      3.63636352e-02 0. 0. 0. 0. 0. 1.81818176e-02 0. 0. 0. 0. 0. 0. 0.
      0. 0. 0. 0. 0. 0. 0. 0. 0. 0. 0. 0. 0. 0. 1.81818176e-02 0. 0. 0.
      0. 1.81818176e-02 0. 0. 0. 0. 0. 1.81818176e-02 0. 0. 0. 0. 0. 0.
      0. 1.81818176e-02 0. 0. 0. 0. 0. 0. 0. 1.81818176e-02 0. 0.
      1.81818176e-02 0. 0. 0. 0. 0. 0. 0. 0. 0. 0. 0. 0. 0. 0. 0. 0. 0.
      3.63636352e-02 0. 0. 0. 0. 0. 0. 0. 0. 0. 0. 0. 0. 0. 0.
      1.81818176e-02 0. 0. 0. 0. 0. 0. 0. 1.81818176e-02 0.
      1.81818176e-02 0. 0. 0. 0. 0. 0. 0. 0. 0. 0. 0. 0. 0. 0. 0. 0. 0.
      0. 0. 0. 0. 0. 0. 0. 0. 0. 0. 0. 0. 0. 0. 0. 0. 3.63636352e-02 0.
      0. 1.81818176e-02 0. 0. 0. 0. 0. 0. 0. 0. 0. 5.45454547e-02 0. 0.
      0. 0. 0. 0. 0. 0. 0. 0. 0. 0. 0. 0. 0. 0. 0. 0. 0. 0. 0. 0. 0.
      1.81818176e-02 0. 0. 3.63636352e-02 0. 0. 0. 0. 1.81818176e-02 0.
      0. 0. 1.81818176e-02 0. 0. 0. 0. 1.81818176e-02 0. 0. 0. 0. 0. 0.
      0. 0. 0. 0. 0. 0. 0. 0. 0. 0. 0. 0. 0. 0. 0. 0. 0. 0. 0. 0. 0. 0.
      0. 0. 0. 0. 0. 0. 0. 0. 0. 0. 3.63636352e-02 0. 0. 1.81818176e-02
      0. 0. 0. 0. 0. 0. 1.81818176e-02 0. 0. 0. 0. 0. 0. 3.63636352e-02
      0. 0. 0. 0. 0. 0. 0. 0. 1.81818176e-02 0. 0. 0. 0. 1.81818176e-02
      0. 0. 0. 1.81818176e-02 0. 1.81818176e-02 0. 0. 0. 0. 0. 0. 0. 0.
      0. 0. 0. 0. 0. 0. 0. 0. 0. 0. 0. 0. 0. 0. 0. 0. 0. 0. 0. 0. 0. 0.
      0. 0. 0. 0. 0. 0. 0. 0. 0. 0. 0. 0. 0. 0. 0. 0. 0. 0. 0. 0. 0. 0.
      0. 0.</_>
    <_>
      0. 0. 0. 0. 0. 0. 0. 0. 4.54545468e-02 0. 0. 0. 4.54545468e-02 0.
      0. 0. 0. 0. 0. 0. 0. 0. 0. 0. 0. 0. 0. 0. 0. 4.54545468e-02 0. 0.
      0. 0. 0. 0. 0. 0. 0. 0. 0. 0. 0. 0. 0. 0. 0. 0. 0. 4.54545468e-02
      0. 0. 0. 0. 0. 0. 0. 0. 0. 0. 0. 0. 0. 0. 0. 0. 4.54545468e-02 0.
      0. 0. 0. 0. 0. 0. 0. 0. 0. 0. 0. 0. 0. 4.54545468e-02 0. 0. 0. 0.
      0. 0. 0. 0. 0. 0. 0. 0. 0. 0. 0. 0. 0. 0. 0. 0. 0. 0. 0. 0. 0. 0.
      0. 0. 0. 0. 0. 0. 0. 0. 0. 0. 0. 0. 0. 0. 0. 0. 0. 0. 0. 0. 0. 0.
      0. 0. 0. 0. 0. 0. 0. 0. 0. 0. 0. 0. 0. 0. 0. 0. 0. 0. 0. 0. 0. 0.
      0. 0. 0. 0. 0. 4.54545468e-02 0. 4.54545468e-02 0. 0. 0. 0. 0. 0.
      0. 0. 0. 0. 0. 0. 0. 0. 0. 0. 0. 0. 0. 0. 0. 0. 0. 0. 0. 0. 0. 0.
      0. 0. 0. 0. 0. 0. 0. 0. 0. 0. 0. 0. 0. 0. 0. 0. 0. 0. 0. 0. 0. 0.
      0. 0. 0. 0. 0. 0. 0. 0. 0. 0. 0. 0. 0. 0. 0. 0. 0. 0. 0. 0. 0. 0.
      0. 0. 0. 0. 0. 4.54545468e-02 4.54545468e-02 0. 0. 0. 0. 0. 0. 0.
      0. 0. 0. 0. 4.54545468e-02 0. 0. 0. 0. 0. 0. 0. 0. 0. 0. 0. 0. 0.
      0. 0. 0. 0. 0. 0. 0. 0. 0. 0. 0. 0. 0. 0. 0. 0. 0. 0. 0. 0. 0.
      4.54545468e-02 0. 0. 0. 0. 0. 0. 0. 0. 0. 0. 0. 0. 0. 0. 0. 0. 0.
      0. 0. 0. 0. 0. 0. 0. 0. 0. 0. 0. 0. 0. 0. 0. 0. 0. 0. 0. 0. 0. 0.
      0. 0. 0. 4.54545468e-02 0. 0. 0. 0. 0. 0. 0. 0. 0. 0. 0. 0. 0. 0.
      0. 0. 0. 0. 0. 0. 0. 0. 0. 0. 0. 0. 0. 0. 0. 0. 0. 0. 0. 0. 0. 0.
      0. 0. 0. 0. 0. 0. 0. 0. 0. 0. 0. 0. 0. 0. 0. 0. 0. 0. 0. 0. 0. 0.
      0. 0. 0. 0. 0. 0. 0. 0. 0. 0. 0. 9.09090936e-02 0. 0. 0. 0. 0. 0.
      0. 0. 0. 0. 0. 0. 0. 0. 0. 0. 0. 0. 0. 0. 0. 0. 0. 0. 0. 0. 0. 0.
      0. 0. 0. 0. 0. 0. 0. 1.36363640e-01 0. 0. 0. 0. 0. 0. 0. 0. 0.
      4.54545468e-02 0. 0. 0. 0. 0. 0. 0. 0. 0. 0. 0. 0. 4.54545468e-02
      0. 4.54545468e-02 0. 0. 0. 0. 0. 0. 0. 0. 0. 0. 0. 0. 0.
      4.54545468e-02 0. 0. 0. 0. 0. 0. 0. 0. 0. 0. 0. 0. 0. 0. 0. 0. 0.
      0. 0. 0. 0. 0. 0. 0. 0. 0.</_>
    <_>
      0. 0. 0. 0. 0. 0. 0. 0. 0. 0. 0. 0. 2.38095243e-02 0.
      2.38095243e-02 0. 0. 0. 0. 2.38095243e-02 0. 0. 0. 0. 0. 0. 0. 0.
      0. 0. 2.38095243e-02 0. 0. 0. 0. 0. 0. 0. 0. 0. 0. 0. 0. 0. 0. 0.
      0. 0. 0. 0. 0. 0. 0. 0. 0. 0. 0. 0. 0. 0. 0. 0. 4.76190485e-02 0.
      0. 0. 2.38095243e-02 0. 0. 0. 0. 0. 0. 0. 0. 0. 0. 0. 0. 0. 0. 0.
      0. 0. 0. 0. 0. 0. 0. 0. 0. 0. 0. 0. 0. 0. 0. 0. 0. 0. 0. 0. 0. 0.
      0. 0. 0. 0. 0. 0. 0. 2.38095243e-02 0. 0. 0. 0. 2.38095243e-02 0.
      0. 0. 0. 0. 0. 0. 0. 0. 0. 0. 0. 0. 0. 0. 0. 0. 0. 0. 0.
      2.38095243e-02 0. 0. 0. 2.38095243e-02 0. 0. 0. 0. 0. 0. 0. 0. 0.
      0. 0. 0. 0. 0. 2.38095243e-02 0. 0. 0. 0. 0. 0. 0. 0. 0. 0. 0. 0.
      2.38095243e-02 0. 0. 0. 0. 0. 0. 0. 0. 0. 0. 0. 0. 0. 0. 0.
      2.38095243e-02 2.38095243e-02 0. 0. 0. 0. 0. 2.38095243e-02 0. 0.
      0. 0. 0. 0. 0. 2.38095243e-02 0. 0. 0. 0. 0. 0. 0. 0. 0.
      2.38095243e-02 0. 0. 0. 0. 0. 0. 0. 0. 0. 0. 0. 0. 0. 0. 0. 0.
      2.38095243e-02 0. 0. 0. 0. 2.38095243e-02 4.76190485e-02 0. 0.
      2.38095243e-02 0. 2.38095243e-02 0. 0. 0. 0. 0. 0. 0. 0. 0. 0. 0.
      0. 0. 0. 0. 0. 0. 0. 0. 0. 0. 0. 0. 0. 0. 2.38095243e-02 0. 0. 0.
      2.38095243e-02 0. 0. 0. 0. 0. 0. 0. 0. 0. 0. 0. 2.38095243e-02 0.
      2.38095243e-02 2.38095243e-02 0. 0. 0. 0. 0. 0. 0. 0. 0. 0. 0. 0.
      0. 0. 0. 0. 0. 0. 0. 0. 0. 0. 0. 0. 0. 0. 0. 0. 0. 0. 0. 0. 0.
      2.38095243e-02 2.38095243e-02 0. 0. 0. 0. 0. 0. 0. 0. 0. 0. 0. 0.
      0. 0. 0. 0. 0. 0. 0. 0. 0. 0. 0. 0. 0. 0. 0. 0. 0. 0. 0.
      2.38095243e-02 0. 0. 0. 0. 4.76190485e-02 0. 0. 0. 0. 0. 0. 0. 0.
      0. 0. 0. 0. 0. 0. 0. 0. 0. 0. 0. 0. 0. 0. 0. 0. 0. 0. 0. 0. 0. 0.
      0. 0. 0. 0. 0. 0. 0. 0. 0. 0. 0. 0. 0. 0. 0. 0. 0. 2.38095243e-02
      0. 0. 0. 0. 0. 0. 0. 0. 0. 0. 0. 0. 0. 0. 0. 0. 0. 0.
      2.38095243e-02 0. 0. 0. 2.38095243e-02 2.38095243e-02 0. 0. 0. 0.
      0. 0. 2.38095243e-02 0. 0. 0. 0. 0. 0. 0. 0. 0. 0. 0. 0. 0. 0. 0.
      0. 0. 0. 0. 0. 0. 0. 2.38095243e-02 0. 0. 0. 0. 0. 0. 0. 0. 0. 0.
      0. 0. 0. 0. 0. 0. 0. 0. 0. 0. 2.38095243e-02 0. 2.38095243e-02 0.
      0. 0. 0. 0. 0. 0. 0. 0. 0. 0. 0. 0. 0. 0. 0. 0. 0. 0.</_>
    <_>
      0. 0. 0. 0. 0. 0. 0. 0. 0. 0. 0. 0. 5.08474559e-02 0. 0. 0. 0. 0.
      0. 0. 0. 0. 0. 0. 0. 0. 0. 0. 1.69491526e-02 0. 1.69491526e-02 0.
      0. 0. 0. 0. 0. 0. 0. 0. 0. 0. 0. 1.69491526e-02 0. 1.69491526e-02
      0. 0. 0. 0. 0. 0. 0. 0. 0. 0. 0. 0. 1.69491526e-02 0. 0. 0. 0. 0.
      0. 0. 0. 0. 0. 0. 3.38983051e-02 0. 0. 0. 1.69491526e-02 0. 0. 0.
      0. 0. 0. 0. 0. 0. 0. 0. 0. 0. 0. 0. 0. 0. 0. 0. 1.69491526e-02 0.
      0. 0. 0. 0. 0. 0. 0. 1.69491526e-02 0. 0. 0. 0. 0. 0. 0. 0. 0.
      1.69491526e-02 0. 0. 1.69491526e-02 0. 0. 0. 0. 0. 0.
      1.69491526e-02 0. 0. 0. 0. 0. 0. 0. 0. 0. 0. 0. 0. 0. 0. 0. 0. 0.
      0. 0. 1.69491526e-02 0. 0. 0. 0. 0. 0. 0. 0. 0. 0. 0. 0. 0. 0. 0.
      1.69491526e-02 0. 0. 0. 0. 0. 0. 0. 0. 0. 0. 0. 0. 0. 0.
      3.38983051e-02 0. 1.69491526e-02 0. 0. 0. 0. 0. 0. 0. 0. 0. 0. 0.
      0. 0. 0. 1.69491526e-02 0. 0. 0. 0. 0. 0. 0. 0. 0. 0. 0. 0.
      1.69491526e-02 0. 1.69491526e-02 0. 0. 0. 0. 0. 0. 0. 0. 0. 0. 0.
      0. 0. 0. 0. 0. 0. 0. 0. 0. 1.69491526e-02 0. 0. 1.69491526e-02 0.
      0. 1.69491526e-02 0. 3.38983051e-02 1.69491526e-02 0. 0. 0. 0. 0.
      0. 0. 0. 1.69491526e-02 0. 0. 0. 0. 0. 0. 0. 0. 1.69491526e-02 0.
      3.38983051e-02 0. 0. 0. 0. 0. 0. 0. 0. 0. 0. 0. 0. 0.
      1.69491526e-02 1.69491526e-02 1.69491526e-02 0. 0. 0.
      1.69491526e-02 0. 0. 0. 1.69491526e-02 0. 0. 0. 0. 0. 0. 0. 0. 0.
      0. 0. 0. 1.69491526e-02 0. 0. 0. 0. 0. 0. 0. 0. 0. 0. 0. 0. 0. 0.
      0. 0. 0. 0. 0. 0. 3.38983051e-02 0. 0. 0. 1.69491526e-02 0. 0. 0.
      0. 0. 0. 0. 0. 0. 0. 0. 0. 0. 0. 0. 0. 0. 0. 0. 0. 0. 0.
      1.69491526e-02 0. 0. 0. 0. 0. 0. 1.69491526e-02 0. 0. 0. 0. 0. 0.
      0. 0. 1.69491526e-02 0. 0. 1.69491526e-02 0. 0. 0. 0. 0. 0. 0. 0.
      0. 0. 0. 0. 0. 0. 0. 0. 0. 0. 0. 0. 0. 0. 0. 0. 0. 0. 0. 0. 0. 0.
      0. 1.69491526e-02 1.69491526e-02 0. 0. 0. 0. 0. 0. 0. 0.
      1.69491526e-02 0. 0. 1.69491526e-02 0. 0. 0. 0. 0. 0. 0. 0. 0. 0.
      0. 0. 0. 1.69491526e-02 0. 0. 0. 0. 0. 0. 0. 0. 0. 0. 0. 0. 0. 0.
      0. 0. 0. 0. 0. 5.08474559e-02 0. 0. 0. 0. 0. 0. 0. 0. 0. 0. 0. 0.
      0. 0. 0. 0. 0. 0. 0. 0. 0. 0. 0. 0. 0. 0. 0. 0. 1.69491526e-02 0.
      0. 0. 0. 0. 0. 0. 0. 0. 0. 0. 0. 3.38983051e-02 1.69491526e-02 0.
      0. 0. 0. 0. 0. 0. 0. 0. 0. 0. 0. 0. 0. 0. 0. 0.</_>
    <_>
      0. 0. 0. 0. 0. 0. 0. 9.70873795e-03 0. 1.94174759e-02 0. 0.
      9.70873795e-03 0. 0. 0. 0. 9.70873795e-03 0. 0. 0. 0. 0. 0.
      9.70873795e-03 0. 0. 0. 0. 9.70873795e-03 0. 0. 0. 0. 0. 0. 0. 0.
      0. 0. 0. 0. 0. 9.70873795e-03 0. 0. 9.70873795e-03 0. 0.
      9.70873795e-03 0. 0. 0. 0. 0. 0. 9.70873795e-03 0. 0. 0. 0. 0. 0.
      9.70873795e-03 0. 0. 0. 9.70873795e-03 0. 0. 0. 0. 0. 0. 0. 0. 0.
      0. 0. 0. 0. 0. 9.70873795e-03 9.70873795e-03 1.94174759e-02 0.
      1.94174759e-02 0. 0. 0. 0. 0. 9.70873795e-03 0. 9.70873795e-03 0.
      0. 0. 0. 0. 0. 0. 0. 0. 0. 9.70873795e-03 0. 9.70873795e-03 0. 0.
      0. 9.70873795e-03 0. 0. 0. 0. 0. 0. 9.70873795e-03 0. 0.
      9.70873795e-03 9.70873795e-03 0. 0. 0. 0. 0. 0. 0. 9.70873795e-03
      0. 0. 0. 0. 0. 0. 0. 0. 0. 0. 0. 0. 0. 0. 0. 0. 0. 0. 0. 0.
      9.70873795e-03 0. 0. 0. 0. 0. 9.70873795e-03 0. 0. 0. 0. 0. 0. 0.
      0. 0. 0. 0. 0. 0. 0. 0. 0. 0. 0. 0. 0. 0. 0. 0. 0. 0.
      9.70873795e-03 0. 0. 0. 9.70873795e-03 0. 0. 0. 0. 0. 0. 0. 0.
      9.70873795e-03 0. 0. 9.70873795e-03 0. 0. 0. 0. 0. 9.70873795e-03
      0. 0. 0. 9.70873795e-03 0. 0. 9.70873795e-03 9.70873795e-03 0. 0.
      0. 0. 0. 9.70873795e-03 0. 9.70873795e-03 0. 0. 0. 0.
      9.70873795e-03 0. 0. 0. 0. 9.70873795e-03 0. 0. 0. 0. 0. 0. 0. 0.
      9.70873795e-03 0. 0. 9.70873795e-03 0. 0. 0. 0. 1.94174759e-02
      9.70873795e-03 0. 0. 0. 0. 0. 0. 9.70873795e-03 0. 0. 0. 0. 0. 0.
      0. 0. 9.70873795e-03 0. 0. 9.70873795e-03 0. 0. 0. 9.70873795e-03
      0. 1.94174759e-02 0. 0. 9.70873795e-03 0. 0. 9.70873795e-03 0.
      9.70873795e-03 9.70873795e-03 0. 0. 0. 9.70873795e-03
      9.70873795e-03 0. 0. 0. 0. 9.70873795e-03 0. 9.70873795e-03 0. 0.
      0. 0. 0. 0. 9.70873795e-03 0. 0. 0. 0. 0. 9.70873795e-03 0.
      1.94174759e-02 0. 0. 0. 0. 0. 0. 0. 2.91262139e-02 0.
      9.70873795e-03 0. 0. 0. 0. 0. 0. 9.70873795e-03 9.70873795e-03 0.
      0. 0. 0. 0. 0. 0. 0. 0. 0. 0. 0. 0. 0. 0. 0. 0. 0. 0. 0. 0. 0. 0.
      0. 0. 0. 9.70873795e-03 0. 0. 0. 0. 0. 0. 9.70873795e-03
      9.70873795e-03 9.70873795e-03 0. 0. 9.70873795e-03 0. 0. 0.
      9.70873795e-03 0. 0. 0. 0. 9.70873795e-03 0. 0. 0. 0.
      9.70873795e-03 9.70873795e-03 1.94174759e-02 0. 0. 0. 0. 0. 0. 0.
      0. 0. 9.70873795e-03 0. 0. 0. 0. 0. 0. 9.70873795e-03 0. 0. 0. 0.
      0. 0. 9.70873795e-03 0. 0. 0. 0. 0. 0. 9.70873795e-03 0. 0.
      9.70873795e-03 0. 0. 0. 0. 9.70873795e-03 0. 0. 1.94174759e-02
      9.70873795e-03 9.70873795e-03 0. 0. 0. 9.70873795e-03 0. 0. 0. 0.
      0. 0. 0. 9.70873795e-03 9.70873795e-03 0. 0. 0. 0. 0. 0. 0. 0. 0.
      0. 0. 9.70873795e-03 0. 0. 0. 0. 0. 0. 0. 0. 0. 9.70873795e-03
      1.94174759e-02 0. 0. 0. 9.70873795e-03 0. 0. 0. 0. 0. 0. 0. 0. 0.
      0. 0. 0. 9.70873795e-03 9.70873795e-03 0. 0. 0. 0. 0. 0. 0. 0. 0.
      0. 0. 9.70873795e-03 0. 0. 0. 0. 0. 0.</_>
    <_>
      0. 0. 0. 0. 0. 0. 0. 0. 0. 0. 0. 0. 4.76190485e-02 0. 0. 0. 0. 0.
      0. 0. 0. 0. 0. 0. 0. 0. 0. 0. 0. 0. 0. 0. 0. 0. 0. 0. 0. 0. 0. 0.
      0. 0. 0. 2.38095243e-02 0. 0. 0. 0. 0. 0. 0. 2.38095243e-02 0. 0.
      0. 0. 0. 0. 0. 0. 0. 0. 0. 0. 0. 0. 2.38095243e-02 0.
      2.38095243e-02 0. 0. 0. 0. 0. 0. 0. 0. 0. 0. 0. 0. 0. 0. 0. 0. 0.
      0. 0. 0. 0. 0. 0. 0. 0. 0. 0. 0. 0. 0. 0. 0. 0. 0. 0. 0.
      2.38095243e-02 0. 0. 0. 0. 0. 0. 0. 0. 0. 0. 0. 0. 0. 0. 0. 0. 0.
      0. 0. 0. 0. 0. 0. 0. 0. 0. 0. 0. 0. 0. 0. 2.38095243e-02 0. 0. 0.
      0. 0. 0. 0. 0. 0. 0. 0. 0. 0. 0. 0. 0. 0. 0. 0. 0. 0.
      7.14285746e-02 0. 0. 0. 0. 0. 0. 0. 0. 0. 2.38095243e-02 0. 0. 0.
      0. 0. 0. 0. 0. 0. 0. 0. 0. 0. 0. 0. 0. 0. 0. 0. 0. 0. 0. 0. 0. 0.
      0. 0. 0. 0. 0. 0. 0. 0. 0. 0. 0. 0. 0. 0. 0. 0. 0. 0. 0. 0.
      4.76190485e-02 0. 0. 0. 0. 0. 0. 0. 0. 0. 0. 0. 0. 0. 0. 0. 0. 0.
      0. 0. 0. 0. 0. 0. 0. 0. 0. 0. 0. 0. 0. 0. 0. 0. 0. 0. 0. 0. 0. 0.
      0. 2.38095243e-02 0. 0. 0. 0. 0. 0. 0. 0. 0. 0. 0. 0. 0. 0. 0.
      2.38095243e-02 0. 0. 0. 2.38095243e-02 0. 0. 0. 0. 0. 0.
      2.38095243e-02 0. 0. 0. 0. 0. 0. 0. 0. 0. 0. 0. 0. 0. 0. 0. 0. 0.
      0. 0. 0. 0. 0. 0. 0. 0. 0. 0. 0. 0. 0. 0. 0. 0. 2.38095243e-02 0.
      0. 0. 0. 0. 0. 0. 0. 0. 0. 2.38095243e-02 0. 0. 0. 0. 0.
      2.38095243e-02 2.38095243e-02 0. 0. 0. 0. 0. 0. 0. 0. 0. 0. 0. 0.
      4.76190485e-02 0. 0. 0. 0. 0. 0. 4.76190485e-02 0. 0. 0. 0. 0. 0.
      0. 0. 0. 0. 0. 4.76190485e-02 0. 0. 0. 0. 0. 0. 0. 0. 0. 0. 0. 0.
      0. 0. 0. 0. 0. 0. 0. 0. 0. 0. 0. 0. 0. 0. 0. 0. 0. 0. 0. 0. 0.
      2.38095243e-02 0. 0. 0. 2.38095243e-02 0. 0. 0. 0. 0. 0. 0. 0. 0.
      0. 0. 0. 0. 0. 0. 0. 0. 0. 0. 4.76190485e-02 2.38095243e-02 0. 0.
      0. 0. 0. 0. 0. 0. 0. 0. 0. 0. 2.38095243e-02 0. 0. 0. 0.
      2.38095243e-02 0. 0. 0. 0. 0. 2.38095243e-02 0. 0. 0. 0.
      2.38095243e-02 0. 0. 0. 0. 0. 0. 2.38095243e-02 0. 0. 0. 0. 0. 0.
      0. 0. 0. 0. 0. 0. 0. 0. 0. 4.76190485e-02 0. 2.38095243e-02
      2.38095243e-02 0. 0. 0. 0. 0. 0. 0. 0. 0. 0. 0. 0. 0. 0. 0. 0. 0.
      0.</_>
    <_>
      0. 0. 0. 0. 0. 0. 0. 0. 0. 0. 0. 0. 2.85714287e-02 0. 0. 0. 0. 0.
      0. 0. 0. 0. 0. 0. 0. 0. 0. 0. 0. 0. 0. 0. 0. 0. 0. 0. 0. 0. 0. 0.
      0. 0. 0. 0. 0. 0. 0. 0. 0. 0. 0. 2.85714287e-02 0. 0. 0. 0. 0. 0.
      0. 0. 0. 0. 0. 0. 0. 0. 5.71428575e-02 0. 0. 0. 0. 0. 0. 0. 0. 0.
      0. 0. 0. 0. 0. 2.85714287e-02 0. 0. 0. 0. 0. 0. 0. 0. 0. 0. 0. 0.
      0. 0. 0. 0. 0. 0. 0. 0. 0. 0. 0. 2.85714287e-02 0. 0. 0. 0. 0. 0.
      0. 0. 0. 0. 0. 0. 0. 0. 0. 0. 0. 0. 0. 0. 5.71428575e-02 0. 0. 0.
      0. 0. 0. 0. 0. 0. 0. 0. 0. 0. 0. 0. 0. 0. 0. 0. 0. 0. 0. 0. 0. 0.
      0. 0. 0. 0. 0. 0. 0. 1.42857149e-01 0. 0. 0. 5.71428575e-02 0. 0.
      0. 0. 0. 0. 0. 0. 0. 0. 0. 0. 0. 0. 0. 0. 0. 0. 0. 0. 0. 0. 0. 0.
      0. 0. 0. 0. 2.85714287e-02 0. 0. 0. 0. 0. 0. 0. 0. 0. 0. 0. 0. 0.
      0. 0. 0. 0. 0. 0. 0. 0. 0. 0. 0. 0. 0. 0. 0. 0. 0. 0. 0. 0. 0. 0.
      0. 0. 0. 0. 2.85714287e-02 0. 0. 0. 0. 0. 2.85714287e-02 0. 0. 0.
      2.85714287e-02 0. 0. 0. 0. 0. 0. 0. 0. 2.85714287e-02 0. 0. 0. 0.
      0. 0. 0. 0. 0. 0. 0. 2.85714287e-02 0. 0. 0. 0. 0. 0. 0. 0. 0. 0.
      0. 0. 0. 0. 0. 0. 0. 0. 0. 0. 0. 0. 0. 0. 0. 0. 0. 0. 0. 0. 0. 0.
      0. 0. 0. 0. 0. 0. 0. 0. 0. 0. 0. 0. 0. 0. 0. 0. 0. 0. 0. 0. 0. 0.
      2.85714287e-02 0. 0. 0. 0. 0. 0. 0. 0. 2.85714287e-02
      2.85714287e-02 0. 0. 0. 0. 0. 0. 0. 0. 0. 0. 0. 0. 0. 0. 0. 0. 0.
      0. 0. 0. 0. 0. 0. 0. 0. 0. 2.85714287e-02 0. 0. 0. 0.
      2.85714287e-02 0. 0. 2.85714287e-02 0. 0. 0. 2.85714287e-02 0. 0.
      0. 0. 0. 0. 0. 0. 0. 0. 0. 0. 0. 0. 0. 0. 0. 0. 0. 0. 0. 0. 0. 0.
      0. 0. 0. 0. 0. 0. 0. 0. 0. 0. 0. 2.85714287e-02 0. 2.85714287e-02
      0. 0. 2.85714287e-02 0. 0. 0. 2.85714287e-02 0. 0. 0. 0. 0. 0. 0.
      0. 0. 0. 0. 0. 0. 0. 0. 0. 0. 2.85714287e-02 0. 0. 0. 0. 0. 0. 0.
      0. 0. 0. 0. 0. 0. 0. 0. 0. 0. 0. 0. 0. 0. 0. 0. 0. 0. 0. 0. 0. 0.
      0. 0. 0. 0. 0. 0. 0. 0. 0. 0. 0. 0. 0. 0. 0. 0. 0. 0. 0. 0. 0.
      2.85714287e-02 0. 0. 0. 2.85714287e-02 0. 0. 0. 0. 0. 0. 0. 0. 0.
      0. 0. 0. 0. 0.</_>
    <_>
      0. 0. 0. 0. 2.43902430e-02 0. 0. 0. 0. 0. 0. 0. 7.31707290e-02 0.
      0. 0. 0. 0. 0. 0. 0. 0. 0. 0. 0. 0. 0. 0. 0. 0. 0. 0. 0. 0. 0. 0.
      0. 0. 0. 0. 0. 0. 0. 4.87804860e-02 0. 0. 0. 2.43902430e-02 0. 0.
      0. 0. 0. 0. 0. 0. 0. 0. 0. 0. 0. 0. 0. 0. 2.43902430e-02 0. 0. 0.
      0. 0. 0. 0. 0. 0. 0. 0. 0. 0. 0. 0. 0. 4.87804860e-02
      2.43902430e-02 0. 0. 0. 0. 0. 0. 0. 0. 0. 0. 0. 0. 0. 0. 0. 0. 0.
      0. 0. 0. 0. 0. 0. 0. 0. 0. 0. 0. 0. 0. 0. 0. 0. 0. 0. 0. 0. 0. 0.
      0. 0. 0. 0. 0. 0. 0. 0. 0. 0. 0. 0. 0. 0. 0. 0. 0. 0. 0. 0. 0. 0.
      0. 0. 0. 2.43902430e-02 0. 0. 0. 0. 0. 0. 0. 0. 0. 2.43902430e-02
      0. 1.95121944e-01 0. 0. 0. 0. 0. 0. 0. 0. 0. 0. 0. 0. 0. 0.
      7.31707290e-02 0. 0. 0. 0. 0. 0. 0. 0. 0. 0. 0. 0. 0. 0. 0. 0. 0.
      0. 0. 0. 0. 0. 0. 0. 0. 2.43902430e-02 0. 0. 0. 0. 0. 0. 0. 0. 0.
      0. 0. 0. 0. 0. 0. 0. 0. 0. 0. 0. 0. 0. 0. 0. 2.43902430e-02 0. 0.
      0. 0. 0. 0. 0. 0. 0. 2.43902430e-02 0. 0. 0. 0. 0. 0. 0. 0. 0. 0.
      0. 0. 0. 0. 0. 0. 0. 0. 0. 0. 0. 0. 0. 0. 0. 2.43902430e-02
      2.43902430e-02 0. 0. 0. 0. 0. 2.43902430e-02 0. 0. 0. 0. 0. 0. 0.
      0. 0. 0. 0. 0. 0. 0. 0. 0. 0. 0. 0. 0. 0. 0. 0. 0. 0. 0. 0. 0. 0.
      0. 0. 0. 0. 0. 0. 0. 0. 0. 0. 0. 0. 0. 0. 0. 0. 0. 0. 0. 0.
      2.43902430e-02 2.43902430e-02 0. 0. 0. 0. 0. 0. 0. 0.
      2.43902430e-02 0. 0. 0. 0. 0. 0. 0. 0. 0. 0. 0. 0. 0. 0. 0. 0. 0.
      0. 0. 2.43902430e-02 0. 0. 0. 0. 0. 0. 0. 0. 0. 0. 0. 0. 0. 0. 0.
      0. 0. 0. 0. 0. 0. 0. 0. 0. 0. 0. 0. 0. 0. 0. 0. 0. 0. 0. 0. 0. 0.
      0. 0. 2.43902430e-02 0. 0. 0. 0. 0. 0. 0. 0. 0. 2.43902430e-02 0.
      0. 2.43902430e-02 0. 2.43902430e-02 0. 0. 0. 0. 0. 0. 0. 0. 0. 0.
      0. 0. 2.43902430e-02 0. 0. 0. 0. 0. 0. 0. 0. 0. 0. 0. 0. 0. 0. 0.
      0. 0. 2.43902430e-02 0. 0. 0. 0. 2.43902430e-02 0. 0. 0. 0. 0. 0.
      0. 0. 0. 0. 0. 0. 0. 0. 0. 0. 0. 0. 0. 0. 0. 0. 0. 0. 0. 0. 0. 0.
      0. 0. 0. 0. 0. 0. 0. 0. 0. 0. 0. 0. 0. 0. 0. 0. 0. 0. 0. 0. 0. 0.
      0. 0. 0. 0. 0. 0. 0. 0. 0. 0.</_>
    <_>
      0. 0. 0. 1.29870130e-02 0. 0. 1.29870130e-02 0. 0. 0. 0. 0. 0. 0.
      0. 0. 0. 0. 0. 0. 0. 0. 1.29870130e-02 0. 0. 0. 0. 0. 0.
      1.29870130e-02 1.29870130e-02 0. 0. 0. 0. 0. 0. 0. 0. 0. 0. 0. 0.
      1.29870130e-02 0. 0. 0. 0. 0. 1.29870130e-02 0. 2.59740259e-02 0.
      0. 0. 0. 0. 0. 0. 0. 0. 0. 0. 0. 0. 0. 0. 0. 0. 0. 0. 0. 0. 0. 0.
      0. 1.29870130e-02 0. 0. 0. 0. 0. 0. 2.59740259e-02 0. 0. 0. 0. 0.
      0. 0. 0. 0. 0. 0. 1.29870130e-02 0. 0. 0. 0. 0. 0. 0.
      1.29870130e-02 0. 0. 0. 0. 0. 0. 0. 0. 0. 0. 0. 0. 0. 0. 0. 0. 0.
      0. 0. 0. 0. 1.29870130e-02 1.29870130e-02 0. 0. 1.29870130e-02
      1.29870130e-02 0. 1.29870130e-02 0. 0. 0. 0. 0. 0. 0. 0.
      3.89610380e-02 0. 0. 0. 0. 0. 0. 0. 0. 0. 0. 0. 0. 0. 0. 0. 0. 0.
      1.29870130e-02 0. 0. 0. 1.29870130e-02 0. 0. 0. 0. 0. 0. 0. 0.
      1.29870130e-02 0. 1.29870130e-02 0. 0. 0. 0. 1.29870130e-02 0. 0.
      0. 0. 0. 0. 0. 0. 1.29870130e-02 0. 0. 0. 0. 0. 0. 0. 0. 0. 0.
      1.29870130e-02 3.89610380e-02 0. 0. 0. 0. 0. 0. 0. 0.
      1.29870130e-02 0. 0. 0. 1.29870130e-02 0. 0. 0. 0. 0. 0. 0. 0. 0.
      0. 0. 1.29870130e-02 1.29870130e-02 2.59740259e-02 0. 0. 0. 0. 0.
      0. 0. 1.29870130e-02 0. 0. 0. 0. 0. 0. 0. 0. 0. 0. 0. 0.
      1.29870130e-02 0. 1.29870130e-02 0. 0. 0. 0. 0. 0. 0. 0. 0. 0. 0.
      0. 0. 0. 0. 0. 0. 1.29870130e-02 0. 0. 0. 1.29870130e-02 0. 0. 0.
      0. 0. 0. 1.29870130e-02 0. 0. 0. 0. 0. 0. 0. 1.29870130e-02 0. 0.
      0. 0. 0. 0. 0. 0. 0. 0. 0. 0. 0. 0. 0. 0. 0. 0. 1.29870130e-02 0.
      0. 0. 0. 0. 0. 0. 0. 0. 0. 1.29870130e-02 6.49350658e-02 0. 0. 0.
      0. 2.59740259e-02 0. 0. 0. 0. 2.59740259e-02 0. 0. 0. 0. 0. 0.
      1.29870130e-02 0. 0. 0. 0. 0. 0. 0. 0. 0. 0. 0. 0. 5.19480519e-02
      0. 0. 0. 0. 0. 0. 2.59740259e-02 0. 1.29870130e-02 0. 0.
      1.29870130e-02 0. 0. 0. 0. 0. 0. 0. 0. 0. 0. 0. 0. 0. 0. 0. 0. 0.
      0. 0. 0. 0. 0. 0. 0. 0. 0. 1.29870130e-02 0. 0. 0. 0. 0. 0. 0. 0.
      0. 0. 0. 0. 1.29870130e-02 0. 0. 0. 0. 1.29870130e-02 0. 0. 0. 0.
      0. 0. 0. 0. 0. 0. 0. 0. 0. 0. 0. 0. 0. 0. 0. 2.59740259e-02 0. 0.
      0. 0. 0. 0. 0. 0. 0. 0. 0. 0. 0. 1.29870130e-02 0. 0. 0. 0.
      1.29870130e-02 0. 0. 0. 0. 0. 0. 0. 0. 0. 0. 0. 0. 1.29870130e-02
      0. 0. 0. 0. 0. 0. 0. 0. 0. 0. 0. 0. 0. 0. 0. 0. 0. 0. 0. 0. 0. 0.
      0. 1.29870130e-02 0. 0. 0. 2.59740259e-02 0. 0. 0. 0. 0. 0. 0. 0.
      0. 0. 0. 0. 0. 1.29870130e-02</_>
    <_>
      0. 0. 0. 0. 0. 0. 0. 0. 0. 0. 0. 0. 0. 0. 0. 0. 0. 0. 0.
      1.09890113e-02 0. 0. 1.09890113e-02 0. 0. 0. 0. 0. 0.
      1.09890113e-02 0. 0. 0. 0. 0. 0. 0. 0. 0. 0. 0. 0. 0.
      3.29670347e-02 0. 0. 0. 0. 0. 0. 0. 1.09890113e-02 0. 0.
      1.09890113e-02 1.09890113e-02 0. 0. 0. 0. 0. 0. 0. 0. 0. 0.
      1.09890113e-02 0. 0. 0. 0. 0. 0. 0. 0. 0. 0. 0. 0. 1.09890113e-02
      0. 2.19780225e-02 0. 0. 0. 0. 0. 0. 0. 0. 0. 2.19780225e-02 0. 0.
      0. 0. 0. 0. 0. 0. 0. 0. 0. 0. 0. 1.09890113e-02 0. 0. 0. 0. 0. 0.
      0. 0. 0. 0. 2.19780225e-02 2.19780225e-02 0. 0. 0. 0.
      1.09890113e-02 0. 0. 1.09890113e-02 0. 0. 0. 0. 2.19780225e-02 0.
      0. 0. 0. 0. 0. 0. 0. 0. 0. 1.09890113e-02 0. 1.09890113e-02 0. 0.
      0. 0. 0. 0. 0. 0. 0. 0. 0. 0. 0. 0. 0. 4.39560451e-02 0. 0. 0. 0.
      0. 0. 0. 0. 0. 1.09890113e-02 0. 0. 0. 0. 3.29670347e-02 0. 0. 0.
      0. 1.09890113e-02 0. 0. 0. 0. 1.09890113e-02 0. 0. 0. 0. 0. 0. 0.
      0. 1.09890113e-02 0. 0. 1.09890113e-02 0. 0. 0. 0. 0. 0. 0. 0.
      1.09890113e-02 0. 0. 0. 0. 1.09890113e-02 0. 0. 0. 0.
      1.09890113e-02 0. 0. 0. 0. 0. 0. 0. 1.09890113e-02 0.
      1.09890113e-02 0. 1.09890113e-02 0. 0. 0. 0. 0. 0. 0. 0. 0. 0. 0.
      0. 0. 0. 1.09890113e-02 0. 0. 0. 0. 0. 0. 0. 0. 0. 0.
      1.09890113e-02 1.09890113e-02 0. 0. 0. 0. 0. 0. 0. 0. 0. 0. 0. 0.
      0. 0. 0. 0. 0. 0. 0. 0. 1.09890113e-02 0. 0. 0. 0. 2.19780225e-02
      0. 0. 0. 1.09890113e-02 0. 1.09890113e-02 0. 1.09890113e-02 0. 0.
      0. 0. 0. 0. 0. 0. 2.19780225e-02 0. 0. 0. 0. 0. 0. 0. 0. 0. 0.
      1.09890113e-02 0. 0. 0. 0. 0. 0. 0. 0. 0. 1.09890113e-02
      1.09890113e-02 0. 0. 0. 0. 1.09890113e-02 1.09890113e-02 0. 0.
      1.09890113e-02 0. 0. 0. 1.09890113e-02 0. 1.09890113e-02 0. 0. 0.
      0. 0. 0. 0. 0. 0. 0. 0. 0. 0. 0. 1.09890113e-02 0. 0. 0. 0. 0. 0.
      0. 0. 0. 0. 0. 0. 1.09890113e-02 0. 0. 1.09890113e-02 0.
      2.19780225e-02 0. 0. 0. 0. 0. 0. 1.09890113e-02 0. 0. 0. 0. 0. 0.
      0. 0. 1.09890113e-02 0. 0. 0. 0. 1.09890113e-02 2.19780225e-02 0.
      1.09890113e-02 0. 0. 0. 0. 0. 0. 0. 0. 0. 1.09890113e-02 0.
      1.09890113e-02 0. 0. 0. 0. 0. 0. 0. 0. 0. 0. 0. 0. 0. 0. 0. 0. 0.
      0. 0. 0. 0. 1.09890113e-02 0. 0. 0. 0. 0. 0. 0. 0. 1.09890113e-02
      0. 0. 0. 0. 3.29670347e-02 0. 0. 0. 0. 1.09890113e-02 0. 0. 0. 0.
      0. 0. 0. 0. 0. 0. 0. 0. 1.09890113e-02 0. 0. 0. 1.09890113e-02 0.
      0. 0. 0. 0. 0. 0. 0. 1.09890113e-02 2.19780225e-02 0. 0. 0. 0. 0.
      0. 1.09890113e-02 0. 0. 1.09890113e-02 0. 0. 1.09890113e-02 0. 0.
      0. 0. 0. 0. 1.09890113e-02 0. 0. 0. 0. 0. 0. 0. 0.</_>
    <_>
      0. 0. 0. 0. 0. 0. 0. 0. 0. 0. 0. 0. 1.66666672e-01 0. 0. 0. 0. 0.
      0. 0. 0. 0. 0. 0. 0. 0. 0. 0. 0. 0. 0. 0. 0. 0. 0. 0. 0. 0. 0. 0.
      0. 0. 0. 0. 0. 0. 0. 0. 0. 0. 0. 0. 0. 0. 0. 0. 0. 0. 0. 0. 0. 0.
      0. 0. 0. 0. 0. 0. 0. 0. 0. 0. 0. 0. 0. 0. 0. 0. 0. 0. 0.
      3.33333351e-02 3.33333351e-02 0. 0. 0. 0. 0. 0. 0. 0. 0. 0. 0. 0.
      0. 0. 0. 0. 0. 0. 0. 0. 0. 0. 3.33333351e-02 0. 0. 0. 0. 0. 0. 0.
      0. 0. 0. 0. 0. 0. 0. 0. 0. 0. 0. 0. 0. 0. 0. 0. 0. 0. 0. 0. 0. 0.
      0. 0. 0. 0. 0. 0. 0. 0. 0. 0. 0. 0. 0. 0. 0. 0. 0. 0. 0. 0. 0. 0.
      3.33333351e-02 0. 0. 0. 0. 0. 3.33333351e-02 0. 0. 0. 0. 0. 0. 0.
      0. 0. 0. 0. 0. 0. 0. 0. 0. 0. 3.33333351e-02 0. 0. 0. 0. 0. 0.
      3.33333351e-02 0. 0. 0. 0. 0. 0. 0. 0. 0. 0. 0. 0. 0. 0. 0. 0. 0.
      0. 0. 0. 0. 0. 0. 0. 0. 0. 0. 0. 0. 0. 3.33333351e-02 0. 0. 0. 0.
      0. 0. 0. 0. 0. 0. 0. 0. 0. 0. 0. 0. 0. 0. 0. 0. 0. 0. 0. 0. 0. 0.
      0. 0. 0. 0. 0. 0. 0. 0. 0. 0. 1.00000009e-01 0. 0. 0. 0. 0. 0. 0.
      0. 0. 0. 0. 0. 0. 0. 0. 0. 0. 0. 0. 0. 0. 0. 0. 0. 0. 0. 0. 0. 0.
      0. 0. 0. 0. 0. 0. 0. 0. 0. 0. 0. 0. 0. 0. 0. 0. 3.33333351e-02 0.
      0. 0. 0. 0. 0. 0. 0. 0. 0. 0. 0. 0. 0. 0. 0. 0. 0. 0. 0. 0. 0. 0.
      0. 0. 6.66666701e-02 0. 0. 0. 0. 0. 0. 0. 3.33333351e-02 0. 0. 0.
      0. 0. 0. 3.33333351e-02 0. 0. 0. 0. 0. 0. 0. 0. 0. 0. 0.
      3.33333351e-02 0. 0. 0. 0. 0. 0. 0. 3.33333351e-02 0. 0. 0. 0. 0.
      0. 0. 0. 0. 0. 0. 0. 0. 0. 0. 0. 0. 0. 0. 0. 0. 0. 3.33333351e-02
      0. 0. 0. 0. 0. 0. 0. 0. 0. 0. 0. 6.66666701e-02 0. 0. 0. 0. 0. 0.
      0. 0. 0. 0. 0. 0. 0. 3.33333351e-02 0. 0. 0. 0. 0. 0. 0. 0. 0. 0.
      0. 0. 0. 0. 0. 0. 0. 0. 0. 0. 0. 3.33333351e-02 0. 0. 0. 0.
      3.33333351e-02 0. 0. 0. 0. 0. 0. 0. 0. 0. 0. 0. 0. 0. 0. 0. 0. 0.
      0. 0. 0. 0. 0. 0. 0. 0. 0. 0. 0. 0. 0. 0. 0. 0. 0. 0. 0. 0. 0.
      3.33333351e-02 0. 0. 0. 0. 0. 0. 0. 0. 0. 0. 0. 0. 0. 0. 0. 0. 0.
      0. 0. 0. 0.</_>
    <_>
      0. 0. 0. 0. 0. 0. 0. 0. 0. 0. 0. 0. 2.94117648e-02 0. 0. 0. 0. 0.
      0. 0. 0. 0. 0. 0. 0. 0. 0. 0. 0. 0. 0. 0. 0. 0. 0. 0. 0. 0. 0. 0.
      0. 0. 0. 0. 0. 0. 0. 0. 0. 0. 0. 0. 0. 0. 0. 0. 0. 0. 0. 0. 0. 0.
      0. 0. 0. 0. 8.82352963e-02 0. 0. 0. 0. 0. 0. 0. 0. 0. 0. 0. 0. 0.
      0. 0. 0. 0. 0. 0. 0. 0. 0. 0. 0. 0. 0. 0. 0. 0. 0. 0. 0. 0. 0. 0.
      0. 0. 0. 0. 0. 0. 0. 0. 0. 0. 0. 0. 0. 0. 0. 0. 0. 0. 0. 0. 0. 0.
      0. 0. 2.94117648e-02 0. 0. 0. 2.94117648e-02 0. 0. 0. 0. 0. 0. 0.
      0. 0. 0. 0. 0. 0. 0. 0. 0. 0. 0. 0. 0. 0. 0. 0. 0. 0. 0. 0. 0.
      1.76470593e-01 0. 0. 0. 5.88235296e-02 0. 0. 0. 0. 0. 0. 0. 0. 0.
      0. 0. 0. 0. 0. 0. 0. 0. 0. 0. 0. 0. 0. 0. 0. 0. 0. 0.
      2.94117648e-02 0. 0. 0. 0. 0. 0. 2.94117648e-02 0. 0. 0. 0. 0. 0.
      0. 0. 0. 0. 0. 0. 0. 0. 0. 0. 0. 0. 0. 0. 0. 0. 0. 0. 0. 0. 0. 0.
      0. 0. 0. 0. 0. 0. 0. 0. 0. 0. 0. 0. 0. 0. 0. 0. 0. 0. 0. 0. 0. 0.
      0. 0. 0. 0. 0. 0. 0. 0. 0. 0. 0. 0. 0. 0. 0. 0. 0. 0. 0. 0. 0. 0.
      0. 0. 0. 0. 0. 0. 0. 0. 0. 2.94117648e-02 0. 0. 0. 0. 0. 0. 0. 0.
      0. 0. 0. 0. 0. 0. 0. 0. 0. 0. 0. 0. 2.94117648e-02 0. 0. 0. 0. 0.
      0. 0. 0. 0. 0. 0. 0. 0. 0. 0. 0. 0. 0. 0. 0. 0. 0. 0. 0. 0. 0. 0.
      0. 0. 0. 0. 0. 0. 0. 0. 0. 0. 0. 0. 0. 0. 0. 0. 0. 0. 0.
      2.94117648e-02 0. 0. 0. 0. 0. 0. 0. 0. 0. 0. 0. 0. 1.76470593e-01
      0. 0. 0. 0. 0. 5.88235296e-02 0. 0. 0. 0. 0. 0. 0. 0. 0. 0. 0. 0.
      0. 0. 0. 0. 0. 0. 0. 0. 0. 0. 0. 0. 0. 0. 0. 0. 0. 0. 0. 0. 0. 0.
      0. 0. 0. 0. 0. 0. 0. 0. 0. 0. 2.94117648e-02 0. 0. 0.
      2.94117648e-02 0. 0. 0. 0. 0. 0. 0. 0. 0. 0. 2.94117648e-02 0. 0.
      0. 0. 0. 0. 2.94117648e-02 0. 0. 0. 0. 0. 0. 0. 0. 0. 0. 0. 0. 0.
      0. 0. 0. 0. 0. 0. 0. 0. 0. 0. 0. 0. 0. 0. 2.94117648e-02 0. 0. 0.
      0. 0. 0. 0. 0. 0. 0. 0. 0. 0. 0. 0. 2.94117648e-02 0.
      2.94117648e-02 0. 0. 0. 0. 0. 0. 0. 0. 0. 0. 0. 0. 0. 0. 0. 0. 0.
      0. 0.</_>
    <_>
      0. 0. 0. 0. 0. 0. 0. 0. 0. 0. 1.38888890e-02 0. 0. 0. 0. 0. 0. 0.
      0. 0. 0. 0. 0. 0. 0. 0. 0. 0. 0. 0. 1.38888890e-02 0. 0. 0. 0. 0.
      1.38888890e-02 1.38888890e-02 0. 0. 0. 0. 0. 4.16666679e-02 0.
      1.38888890e-02 0. 0. 0. 0. 0. 2.77777780e-02 0. 0. 0. 0. 0. 0. 0.
      0. 0. 0. 1.38888890e-02 0. 0. 0. 0. 0. 1.38888890e-02 0. 0. 0. 0.
      0. 0. 0. 0. 0. 0. 0. 0. 0. 0. 2.77777780e-02 0. 0. 0. 0. 0. 0. 0.
      0. 0. 0. 0. 0. 0. 0. 0. 0. 0. 1.38888890e-02 0. 0. 1.38888890e-02
      0. 0. 0. 0. 0. 0. 1.38888890e-02 0. 0. 0. 0. 0. 0. 0. 0. 0.
      1.38888890e-02 0. 1.38888890e-02 0. 1.38888890e-02 0.
      1.38888890e-02 0. 0. 0. 1.38888890e-02 0. 0. 0. 0. 1.38888890e-02
      0. 0. 0. 0. 0. 0. 1.38888890e-02 0. 0. 0. 0. 0. 1.38888890e-02 0.
      0. 0. 0. 0. 0. 4.16666679e-02 0. 0. 1.38888890e-02 0. 0. 0.
      1.38888890e-02 0. 1.38888890e-02 0. 0. 0. 0. 0. 0. 0. 0. 0. 0. 0.
      0. 0. 0. 0. 0. 0. 0. 0. 0. 0. 0. 0. 0. 0. 0. 0. 0. 0. 0. 0. 0. 0.
      0. 0. 0. 0. 0. 0. 0. 0. 0. 0. 0. 0. 0. 0. 0. 0. 1.38888890e-02 0.
      0. 0. 1.38888890e-02 0. 0. 0. 0. 0. 0. 0. 1.38888890e-02 0. 0.
      1.38888890e-02 0. 1.38888890e-02 0. 0. 0. 0. 1.38888890e-02 0. 0.
      0. 1.38888890e-02 1.38888890e-02 1.38888890e-02 0. 0. 0. 0. 0. 0.
      1.38888890e-02 1.38888890e-02 0. 0. 0. 0. 1.38888890e-02 0. 0. 0.
      0. 0. 2.77777780e-02 0. 0. 0. 1.38888890e-02 0. 0. 0. 0. 0. 0. 0.
      0. 0. 0. 0. 0. 0. 0. 0. 1.38888890e-02 0. 0. 1.38888890e-02 0. 0.
      0. 0. 0. 0. 0. 0. 0. 0. 0. 0. 0. 0. 0. 1.38888890e-02 0. 0. 0. 0.
      1.38888890e-02 0. 1.38888890e-02 0. 1.38888890e-02 0. 0. 0.
      1.38888890e-02 0. 1.38888890e-02 1.38888890e-02 1.38888890e-02 0.
      0. 0. 0. 0. 0. 0. 0. 0. 2.77777780e-02 0. 0. 0. 0. 0.
      2.77777780e-02 0. 0. 0. 0. 0. 0. 0. 0. 0. 0. 0. 0. 0. 0. 0. 0.
      1.38888890e-02 0. 0. 0. 1.38888890e-02 0. 0. 0. 1.38888890e-02 0.
      0. 0. 0. 0. 0. 0. 0. 0. 0. 0. 1.38888890e-02 0. 0. 0. 0.
      1.38888890e-02 0. 0. 0. 0. 0. 0. 0. 0. 0. 1.38888890e-02 0. 0. 0.
      0. 0. 0. 0. 0. 0. 0. 0. 0. 0. 0. 0. 0. 1.38888890e-02
      1.38888890e-02 0. 0. 1.38888890e-02 0. 0. 0. 0. 0. 0. 0. 0. 0. 0.
      0. 0. 0. 0. 1.38888890e-02 0. 0. 0. 0. 0. 0. 0. 0. 0. 0. 0. 0. 0.
      0. 0. 0. 0. 0. 0. 0. 0. 0. 0. 0. 0. 0. 0. 0. 0. 0. 0. 0. 0. 0. 0.
      0. 0. 0. 0. 0. 0. 0. 0. 0. 0. 0. 0. 0. 0. 0. 0. 0. 1.38888890e-02
      0. 0. 0. 0. 0. 0. 0. 0. 0. 0. 0. 0. 0. 0. 0. 0. 0. 0. 0. 0.
      1.38888890e-02 0. 0. 0.</_>
    <_>
      0. 0. 0. 0. 0. 0. 0. 0. 3.84615399e-02 0. 0. 0. 3.84615399e-02 0.
      0. 0. 0. 0. 0. 0. 0. 0. 0. 0. 0. 0. 0. 0. 0. 0. 3.84615399e-02 0.
      0. 0. 0. 0. 0. 0. 0. 0. 0. 0. 0. 0. 0. 0. 0. 0. 0. 0. 0. 0. 0. 0.
      0. 0. 0. 0. 0. 0. 0. 0. 0. 0. 0. 0. 1.15384623e-01 0. 0. 0. 0. 0.
      0. 0. 0. 0. 0. 0. 0. 0. 0. 3.84615399e-02 3.84615399e-02 0. 0. 0.
      0. 0. 0. 0. 0. 0. 0. 0. 0. 0. 0. 0. 0. 0. 0. 0. 0. 0. 0. 0. 0. 0.
      0. 0. 0. 0. 0. 0. 0. 0. 0. 0. 0. 3.84615399e-02 0. 0. 0.
      3.84615399e-02 0. 0. 0. 0. 0. 0. 0. 0. 0. 0. 0. 0. 0. 0. 0. 0. 0.
      0. 0. 0. 0. 0. 0. 0. 0. 0. 0. 0. 0. 0. 0. 0. 0. 3.84615399e-02 0.
      3.84615399e-02 0. 0. 0. 0. 0. 0. 0. 0. 0. 0. 0. 0. 0. 0. 0. 0. 0.
      0. 0. 0. 0. 3.84615399e-02 0. 0. 0. 0. 0. 0. 0. 0. 0. 0. 0. 0. 0.
      0. 0. 0. 0. 0. 0. 0. 0. 0. 0. 0. 0. 0. 0. 0. 0. 0. 0. 0. 0. 0. 0.
      0. 0. 0. 0. 0. 0. 0. 0. 0. 0. 0. 0. 0. 0. 0. 0. 0. 0. 0. 0. 0. 0.
      0. 0. 3.84615399e-02 0. 0. 0. 0. 0. 0. 0. 0. 0. 0. 0. 0. 0. 0. 0.
      0. 0. 0. 0. 0. 0. 0. 0. 0. 0. 0. 0. 0. 0. 0. 0. 0. 0. 0. 0. 0. 0.
      0. 0. 0. 0. 0. 0. 3.84615399e-02 0. 0. 0. 0. 0. 0. 0. 0. 0. 0. 0.
      0. 0. 0. 0. 3.84615399e-02 0. 0. 0. 0. 0. 0. 0. 0. 0.
      3.84615399e-02 0. 0. 0. 0. 0. 0. 0. 0. 0. 0. 0. 0. 0. 0. 0. 0. 0.
      0. 0. 0. 0. 0. 0. 0. 0. 0. 0. 0. 0. 0. 0. 0. 0. 0. 0. 0. 0. 0. 0.
      0. 0. 0. 0. 7.69230798e-02 0. 0. 0. 0. 0. 0. 0. 0. 0. 0. 0.
      3.84615399e-02 0. 0. 0. 0. 0. 0. 0. 0. 0. 0. 3.84615399e-02 0. 0.
      0. 0. 0. 0. 0. 0. 3.84615399e-02 0. 0. 0. 0. 0. 0. 0. 0. 0. 0. 0.
      0. 0. 0. 0. 3.84615399e-02 0. 0. 0. 0. 0. 0. 0. 0. 0. 0. 0. 0. 0.
      0. 0. 0. 0. 0. 0. 0. 0. 0. 0. 0. 3.84615399e-02 0. 0. 0. 0. 0.
      7.69230798e-02 0. 0. 0. 0. 0. 0. 0. 0. 0. 0. 0. 0. 0. 0. 0. 0. 0.
      0. 0. 0. 0. 0. 0. 0. 0. 0. 0. 0. 0. 0. 0. 0. 0. 0. 0. 0. 0. 0. 0.
      0. 0. 0. 0. 0. 0. 0. 0. 0. 0. 0. 0. 0. 0. 0. 0. 0. 0. 0. 0. 0. 0.
      0. 0. 0. 0.</_>
    <_>
      0. 0. 0. 1.58730168e-02 0. 0. 0. 0. 0. 0. 0. 0. 6.34920672e-02 0.
      0. 0. 0. 0. 0. 0. 0. 0. 0. 0. 0. 0. 0. 0. 0. 0. 0. 0. 0. 0. 0. 0.
      0. 0. 0. 0. 0. 0. 0. 0. 0. 0. 0. 0. 0. 0. 0. 0. 0. 0. 0. 0. 0. 0.
      1.58730168e-02 0. 0. 0. 1.58730168e-02 0. 0. 0. 0. 0. 0. 0. 0. 0.
      0. 0. 0. 0. 0. 0. 0. 0. 0. 3.17460336e-02 0. 3.17460336e-02 0. 0.
      0. 0. 1.58730168e-02 0. 0. 1.58730168e-02 0. 0. 0. 0. 0. 0. 0. 0.
      0. 0. 0. 1.58730168e-02 0. 1.58730168e-02 0. 0. 0. 0. 0. 0. 0. 0.
      0. 0. 0. 0. 0. 0. 0. 0. 0. 0. 0. 0. 0. 1.58730168e-02 0. 0.
      1.58730168e-02 0. 0. 0. 0. 0. 0. 0. 0. 0. 0. 0. 0. 0. 0. 0. 0. 0.
      0. 0. 0. 0. 0. 0. 0. 0. 0. 0. 0. 7.93650821e-02 0. 0. 0. 0. 0.
      1.58730168e-02 0. 0. 0. 0. 0. 0. 0. 0. 1.58730168e-02 0. 0. 0. 0.
      0. 0. 0. 0. 0. 0. 0. 1.58730168e-02 0. 0. 0. 0. 0. 0. 0. 0. 0. 0.
      0. 0. 0. 0. 0. 0. 0. 0. 0. 0. 0. 0. 0. 0. 1.58730168e-02 0. 0. 0.
      0. 0. 0. 0. 0. 0. 0. 0. 0. 0. 0. 0. 3.17460336e-02 0. 0. 0. 0. 0.
      0. 0. 1.58730168e-02 3.17460336e-02 0. 0. 0. 0. 1.58730168e-02 0.
      0. 0. 0. 0. 0. 0. 0. 0. 0. 0. 0. 0. 0. 0. 0. 0. 0. 0. 0.
      3.17460336e-02 0. 0. 0. 0. 0. 0. 0. 0. 0. 1.58730168e-02 0. 0. 0.
      0. 0. 1.58730168e-02 0. 0. 0. 0. 1.58730168e-02 0. 0. 0. 0. 0. 0.
      0. 0. 0. 0. 0. 0. 0. 0. 0. 0. 0. 0. 0. 0. 1.58730168e-02 0. 0. 0.
      0. 0. 0. 0. 0. 0. 0. 0. 0. 0. 7.93650821e-02 0. 0. 0. 0. 0. 0. 0.
      0. 0. 4.76190522e-02 0. 0. 0. 1.58730168e-02 0. 0. 0.
      3.17460336e-02 0. 0. 0. 0. 0. 0. 0. 0. 0. 0. 0. 1.58730168e-02 0.
      0. 0. 0. 0. 0. 1.58730168e-02 0. 0. 0. 0. 1.58730168e-02 0. 0. 0.
      0. 0. 0. 0. 0. 0. 0. 0. 0. 0. 0. 0. 0. 0. 0. 0. 0. 0. 0. 0. 0. 0.
      0. 0. 0. 0. 0. 1.58730168e-02 1.58730168e-02 0. 0. 0. 0. 0. 0. 0.
      0. 0. 0. 1.58730168e-02 0. 1.58730168e-02 0. 0. 0. 0.
      1.58730168e-02 0. 0. 0. 0. 0. 0. 0. 0. 0. 0. 1.58730168e-02 0. 0.
      0. 1.58730168e-02 0. 0. 0. 0. 0. 0. 0. 0. 0. 0. 0. 0. 0. 0. 0. 0.
      0. 0. 1.58730168e-02 0. 1.58730168e-02 0. 0. 0. 0. 0. 0. 0. 0. 0.
      0. 0. 0. 0. 0. 0. 0. 0. 0. 0. 0. 0. 0. 0. 0. 0. 0. 0. 0. 0. 0. 0.
      0. 0. 0. 1.58730168e-02 0. 0. 0. 0. 0. 0. 0. 0. 0. 0.
      1.58730168e-02 0. 0. 0. 0. 0. 0. 0.</_>
    <_>
      0. 0. 0. 0. 0. 0. 1.31578948e-02 0. 0. 1.31578948e-02 0. 0.
      7.89473653e-02 0. 0. 0. 0. 0. 0. 1.31578948e-02 0. 0. 0. 0. 0. 0.
      0. 0. 0. 1.31578948e-02 0. 0. 0. 1.31578948e-02 0. 1.31578948e-02
      0. 0. 0. 0. 0. 0. 1.31578948e-02 1.31578948e-02 0. 0. 0. 0. 0. 0.
      0. 2.63157897e-02 0. 0. 0. 0. 0. 0. 0. 1.31578948e-02 0. 0. 0. 0.
      0. 0. 1.31578948e-02 0. 0. 0. 0. 0. 0. 0. 0. 0. 0. 0. 0.
      1.31578948e-02 0. 0. 0. 1.31578948e-02 0. 0. 0. 0. 0. 0.
      1.31578948e-02 0. 0. 0. 0. 0. 1.31578948e-02 0. 0. 0. 0. 0. 0. 0.
      0. 0. 0. 0. 0. 0. 0. 5.26315793e-02 0. 0. 0. 0. 1.31578948e-02 0.
      0. 0. 0. 0. 0. 0. 0. 0. 0. 0. 0. 0. 0. 0. 0. 0. 0. 0. 0.
      3.94736826e-02 1.31578948e-02 1.31578948e-02 0. 0. 0. 0.
      1.31578948e-02 0. 0. 0. 0. 0. 0. 0. 0. 0. 3.94736826e-02 0. 0. 0.
      0. 0. 0. 0. 0. 2.63157897e-02 0. 0. 0. 0. 0. 0. 0. 0.
      1.31578948e-02 0. 1.31578948e-02 0. 0. 0. 1.31578948e-02 0. 0. 0.
      0. 0. 0. 0. 0. 0. 2.63157897e-02 0. 0. 0. 0. 0. 0. 0. 0. 0. 0. 0.
      0. 0. 0. 0. 0. 0. 0. 0. 1.31578948e-02 0. 0. 0. 0. 0. 0. 0. 0. 0.
      0. 0. 0. 0. 0. 0. 0. 0. 0. 1.31578948e-02 0. 0. 0. 1.31578948e-02
      0. 0. 0. 0. 0. 0. 0. 0. 0. 0. 0. 0. 0. 0. 0. 0. 0. 0. 0. 0. 0. 0.
      0. 0. 1.31578948e-02 0. 0. 0. 0. 0. 1.31578948e-02 0. 0. 0. 0. 0.
      0. 1.31578948e-02 0. 0. 1.31578948e-02 0. 0. 0. 0. 0. 0.
      1.31578948e-02 0. 0. 0. 0. 0. 0. 0. 0. 0. 0. 0. 0. 0. 0.
      1.31578948e-02 0. 0. 0. 0. 0. 0. 0. 0. 0. 0. 0. 0. 0. 0.
      1.31578948e-02 0. 0. 0. 0. 0. 0. 0. 0. 2.63157897e-02 0. 0. 0. 0.
      0. 0. 0. 0. 0. 0. 0. 0. 0. 0. 0. 0. 0. 1.31578948e-02
      1.31578948e-02 0. 0. 0. 0. 0. 0. 0. 0. 0. 0. 1.31578948e-02 0. 0.
      0. 0. 0. 0. 0. 0. 0. 0. 0. 0. 0. 0. 0. 0. 0. 0. 0. 0. 0. 0. 0. 0.
      0. 0. 0. 0. 0. 0. 0. 0. 0. 0. 0. 0. 0. 0. 0. 2.63157897e-02 0. 0.
      0. 0. 0. 0. 0. 0. 0. 0. 0. 0. 1.31578948e-02 0. 0. 0. 0. 0. 0. 0.
      0. 0. 0. 0. 0. 0. 0. 2.63157897e-02 0. 0. 0. 0. 0. 1.31578948e-02
      0. 0. 2.63157897e-02 1.31578948e-02 1.31578948e-02 0. 0. 0. 0. 0.
      0. 0. 0. 0. 0. 0. 0. 0. 0. 0. 0. 1.31578948e-02 0. 0. 0. 0. 0. 0.
      0. 0. 0. 0. 0. 0. 0. 0. 2.63157897e-02 1.31578948e-02 0.
      1.31578948e-02 0. 0. 0. 0. 0. 0. 0. 0. 0. 0. 0. 0. 0. 0. 0.
      1.31578948e-02 0. 0. 0. 1.31578948e-02 0. 0. 1.31578948e-02 0. 0.
      0. 0. 0. 0. 0. 0. 0. 0. 0. 0. 0. 0.</_>
    <_>
      0. 1.20481923e-02 0. 0. 0. 0. 0. 0. 0. 0. 0. 0. 0. 0. 0. 0. 0. 0.
      0. 0. 0. 1.20481923e-02 0. 0. 0. 0. 0. 1.20481923e-02 0. 0. 0. 0.
      0. 0. 0. 1.20481923e-02 0. 0. 0. 0. 0. 0. 0. 0. 0. 0. 0. 0. 0. 0.
      0. 1.20481923e-02 0. 0. 2.40963846e-02 1.20481923e-02 0. 0. 0. 0.
      0. 0. 0. 0. 0. 0. 1.20481923e-02 1.20481923e-02 0. 0. 0. 0. 0. 0.
      0. 0. 0. 0. 0. 0. 0. 0. 0. 0. 0. 0. 0. 0. 0. 0. 0. 0.
      1.20481923e-02 0. 0. 0. 0. 0. 0. 0. 0. 0. 0. 1.20481923e-02
      2.40963846e-02 0. 0. 0. 2.40963846e-02 0. 0. 0. 0. 1.20481923e-02
      0. 0. 0. 1.20481923e-02 0. 0. 0. 0. 0. 0. 0. 0. 0. 0. 0. 0. 0. 0.
      0. 0. 0. 0. 0. 0. 0. 0. 0. 0. 0. 0. 0. 0. 0. 0. 0. 0. 0. 0.
      2.40963846e-02 0. 0. 0. 0. 0. 1.20481923e-02 0. 0. 0. 0. 0. 0. 0.
      0. 0. 0. 0. 0. 0. 0. 0. 1.20481923e-02 0. 0. 0. 0. 0. 0. 0. 0. 0.
      2.40963846e-02 0. 0. 0. 0. 0. 0. 0. 0. 0. 0. 0. 0. 1.20481923e-02
      0. 0. 0. 0. 0. 0. 0. 1.20481923e-02 0. 0. 0. 0. 0. 0.
      1.20481923e-02 1.20481923e-02 0. 0. 0. 0. 0. 0. 0. 0. 0. 0. 0.
      1.20481923e-02 1.20481923e-02 0. 0. 0. 0. 0. 0. 0. 0.
      1.20481923e-02 0. 0. 0. 0. 1.20481923e-02 0. 0. 0. 1.20481923e-02
      0. 0. 0. 1.20481923e-02 0. 0. 0. 1.20481923e-02 0. 0. 0. 0. 0. 0.
      0. 0. 0. 0. 0. 0. 0. 0. 0. 0. 1.20481923e-02 1.20481923e-02 0. 0.
      0. 0. 1.20481923e-02 0. 0. 1.20481923e-02 0. 1.20481923e-02 0. 0.
      0. 0. 0. 0. 0. 0. 0. 0. 0. 0. 0. 0. 0. 0. 0. 0. 1.20481923e-02 0.
      0. 0. 0. 0. 0. 1.20481923e-02 0. 0. 0. 0. 0. 4.81927693e-02 0. 0.
      0. 0. 0. 2.40963846e-02 1.20481923e-02 0. 0. 0. 0. 0. 0. 0.
      1.20481923e-02 0. 1.20481923e-02 0. 0. 0. 1.20481923e-02 0. 0.
      1.20481923e-02 0. 0. 0. 0. 0. 0. 0. 0. 0. 0. 0. 0. 0. 0. 0.
      1.20481923e-02 0. 0. 1.20481923e-02 0. 0. 0. 0. 0. 1.20481923e-02
      0. 0. 0. 0. 1.20481923e-02 0. 0. 1.20481923e-02 0. 0. 0.
      1.20481923e-02 0. 1.20481923e-02 0. 0. 0. 0. 0. 0. 0.
      1.20481923e-02 0. 0. 0. 0. 0. 0. 0. 0. 0. 0. 0. 0. 1.20481923e-02
      0. 0. 0. 0. 0. 0. 0. 0. 1.20481923e-02 0. 0. 0. 0. 0. 0. 0. 0. 0.
      0. 0. 0. 0. 0. 0. 0. 1.20481923e-02 1.20481923e-02 0. 0. 0. 0. 0.
      2.40963846e-02 0. 0. 0. 1.20481923e-02 0. 0. 0. 1.20481923e-02 0.
      1.20481923e-02 0. 1.20481923e-02 2.40963846e-02 0. 0. 0. 0. 0. 0.
      0. 0. 0. 0. 1.20481923e-02 0. 0. 0. 0. 0. 0. 0. 0. 0. 0. 0. 0. 0.
      0. 0. 1.20481923e-02 0. 0. 0. 0. 0. 0. 0. 0. 0. 1.20481923e-02 0.
      0. 1.20481923e-02 0. 0. 3.61445770e-02 0. 0. 0. 0. 0. 0.
      1.20481923e-02 0. 0. 2.40963846e-02 0. 0. 0. 0.</_>
    <_>
      0. 0. 0. 0. 0. 0. 0. 1.92307699e-02 0. 0. 0. 0. 3.84615399e-02 0.
      0. 0. 0. 0. 0. 0. 0. 0. 1.92307699e-02 0. 0. 0. 0. 0. 0.
      1.92307699e-02 1.92307699e-02 0. 0. 0. 0. 0. 0. 0. 0. 0. 0. 0. 0.
      1.92307699e-02 0. 0. 0. 0. 0. 0. 1.92307699e-02 0. 0. 0. 0. 0. 0.
      0. 0. 0. 0. 0. 3.84615399e-02 0. 0. 0. 0. 0. 0. 0. 0. 0. 0. 0. 0.
      0. 0. 0. 0. 0. 0. 1.92307699e-02 0. 0. 0. 0. 0. 1.92307699e-02
      1.92307699e-02 0. 0. 0. 0. 0. 0. 0. 0. 0. 0. 0. 0. 0. 0. 0. 0. 0.
      0. 0. 0. 0. 0. 0. 0. 0. 0. 0. 0. 0. 0. 0. 0. 0. 0. 1.92307699e-02
      0. 1.92307699e-02 0. 0. 0. 0. 0. 0. 0. 0. 0. 0. 0. 0. 0. 0.
      1.92307699e-02 1.92307699e-02 0. 0. 1.92307699e-02 0. 0. 0. 0. 0.
      0. 0. 0. 0. 0. 0. 0. 0. 0. 0. 1.92307699e-02 0. 0. 0.
      1.92307699e-02 0. 0. 0. 0. 0. 0. 0. 0. 0. 0. 0. 0. 0. 0. 0. 0. 0.
      0. 0. 0. 0. 0. 0. 0. 0. 0. 0. 0. 0. 0. 0. 0. 0. 0. 0. 0. 0. 0. 0.
      3.84615399e-02 0. 0. 0. 0. 0. 0. 0. 1.92307699e-02 0. 0. 0. 0.
      1.92307699e-02 0. 1.92307699e-02 0. 0. 0. 0. 0. 0. 0. 0. 0. 0. 0.
      0. 0. 0. 0. 0. 0. 0. 0. 0. 0. 0. 0. 0. 0. 0. 0. 0. 0. 0. 0. 0. 0.
      0. 0. 0. 1.92307699e-02 0. 0. 0. 0. 0. 0. 0. 0. 0. 0. 0. 0. 0. 0.
      0. 0. 0. 1.92307699e-02 0. 0. 0. 0. 0. 1.92307699e-02 0. 0.
      1.92307699e-02 3.84615399e-02 1.92307699e-02 0. 1.92307699e-02 0.
      0. 0. 0. 1.92307699e-02 0. 0. 0. 0. 0. 0. 0. 0. 0. 0. 0. 0. 0. 0.
      1.92307699e-02 0. 0. 0. 0. 0. 0. 1.92307699e-02 0. 0. 0.
      1.92307699e-02 0. 0. 0. 0. 0. 0. 0. 0. 0. 1.92307699e-02 0. 0. 0.
      0. 0. 0. 0. 1.92307699e-02 0. 0. 0. 1.92307699e-02 0. 0.
      1.92307699e-02 0. 0. 0. 0. 1.92307699e-02 0. 0. 0. 0. 0. 0. 0. 0.
      0. 0. 1.92307699e-02 0. 0. 0. 0. 0. 1.92307699e-02 0.
      1.92307699e-02 0. 0. 0. 0. 0. 0. 0. 0. 0. 0. 0. 0. 0. 0. 0. 0. 0.
      0. 0. 0. 0. 0. 0. 0. 0. 0. 0. 0. 0. 0. 0. 1.92307699e-02 0. 0. 0.
      0. 0. 0. 0. 0. 0. 0. 1.92307699e-02 0. 0. 0. 0. 0. 0. 0. 0. 0. 0.
      0. 0. 0. 0. 0. 0. 0. 0. 0. 0. 0. 0. 0. 0. 0. 0. 1.92307699e-02 0.
      1.92307699e-02 0. 0. 0. 0. 0. 0. 0. 0. 0. 0. 0. 0. 0.
      1.92307699e-02 0. 0. 0. 0. 1.92307699e-02 0. 0. 0. 0. 0. 0. 0. 0.
      0. 0. 0. 0. 1.92307699e-02 0. 0. 0. 0. 0. 0. 0. 0. 0. 0. 0. 0. 0.
      0. 0. 0. 0. 0. 0. 0. 0. 0. 0. 0. 0. 0. 0. 0.</_>
    <_>
      0. 0. 0. 0. 0. 0. 0. 0. 1.58730168e-02 0. 0. 0. 1.58730168e-02 0.
      0. 0. 0. 0. 0. 0. 0. 0. 0. 0. 0. 0. 0. 0. 0. 0. 0. 0. 0. 0. 0. 0.
      0. 0. 0. 0. 0. 0. 0. 0. 0. 0. 0. 0. 0. 0. 0. 0. 0. 0. 0. 0. 0. 0.
      0. 0. 0. 0. 0. 0. 0. 0. 1.58730168e-02 0. 1.58730168e-02 0.
      1.58730168e-02 0. 0. 0. 0. 0. 0. 0. 0. 0. 0. 1.58730168e-02 0. 0.
      0. 0. 0. 0. 0. 0. 0. 1.58730168e-02 0. 0. 0. 0. 0. 0. 0. 0. 0. 0.
      0. 1.58730168e-02 0. 0. 0. 0. 0. 0. 0. 0. 0. 0. 0. 0. 0. 0.
      1.58730168e-02 0. 0. 0. 0. 0. 0. 1.58730168e-02 1.58730168e-02 0.
      0. 0. 0. 0. 1.58730168e-02 0. 0. 0. 0. 0. 0. 0. 0. 1.58730168e-02
      0. 0. 0. 0. 0. 0. 0. 0. 0. 0. 1.58730168e-02 0. 0. 0. 0. 0. 0. 0.
      0. 0. 0. 0. 0. 1.58730168e-02 1.58730168e-02 0. 0. 0. 0. 0. 0. 0.
      0. 0. 1.58730168e-02 0. 0. 0. 0. 0. 0. 0. 1.58730168e-02 0. 0. 0.
      0. 0. 0. 0. 0. 0. 0. 0. 0. 0. 0. 1.58730168e-02 1.58730168e-02 0.
      0. 0. 0. 0. 0. 0. 0. 0. 3.17460336e-02 0. 1.58730168e-02 0. 0. 0.
      0. 0. 0. 0. 0. 1.58730168e-02 0. 0. 1.58730168e-02 0. 0. 0. 0. 0.
      0. 0. 0. 0. 0. 0. 1.58730168e-02 0. 0. 0. 0. 0. 0. 0. 0. 0. 0. 0.
      0. 0. 1.58730168e-02 0. 0. 1.58730168e-02 0. 0. 0. 0. 0. 0. 0. 0.
      1.58730168e-02 0. 0. 0. 0. 0. 1.58730168e-02 0. 0. 0. 0. 0. 0. 0.
      0. 1.58730168e-02 0. 1.58730168e-02 0. 0. 0. 0. 0. 0. 0. 0. 0. 0.
      0. 0. 0. 0. 0. 0. 0. 0. 0. 0. 0. 0. 0. 0. 0. 0. 0. 0. 0. 0. 0. 0.
      1.58730168e-02 0. 0. 0. 0. 0. 0. 0. 0. 0. 0. 0. 0. 1.58730168e-02
      0. 0. 0. 0. 0. 1.58730168e-02 0. 0. 0. 0. 0. 0. 0. 0. 0. 0. 0. 0.
      1.58730168e-02 0. 0. 0. 3.17460336e-02 0. 1.58730168e-02 0. 0. 0.
      0. 0. 0. 0. 0. 0. 1.58730168e-02 6.34920672e-02 0. 0. 0. 0. 0. 0.
      0. 0. 0. 0. 0. 0. 0. 0. 0. 0. 1.58730168e-02 0. 0. 0. 0.
      1.58730168e-02 0. 1.58730168e-02 0. 0. 0. 0. 0. 0. 0. 0. 0. 0. 0.
      0. 0. 0. 0. 0. 0. 1.58730168e-02 0. 0. 0. 0. 0. 0. 0. 0. 0. 0. 0.
      0. 0. 1.58730168e-02 0. 0. 0. 0. 0. 0. 0. 3.17460336e-02 0. 0. 0.
      0. 3.17460336e-02 0. 0. 0. 1.58730168e-02 0. 0. 1.58730168e-02 0.
      3.17460336e-02 0. 0. 0. 0. 0. 0. 0. 0. 1.58730168e-02 0. 0. 0. 0.
      0. 0. 0. 0. 0. 0. 1.58730168e-02 0. 0. 0. 0. 0. 0. 0. 0. 0. 0. 0.
      0. 1.58730168e-02 0. 0. 0. 0. 0. 0. 0. 0. 0. 1.58730168e-02 0. 0.
      3.17460336e-02 0. 0. 0. 0. 0. 0. 0. 0. 0. 0. 0. 0. 0. 0.</_>
    <_>
      0. 0. 0. 3.84615399e-02 0. 0. 0. 0. 0. 0. 0. 0. 1.92307699e-02 0.
      0. 0. 0. 0. 0. 0. 0. 0. 0. 0. 1.92307699e-02 0. 0. 0. 0. 0. 0. 0.
      0. 0. 0. 0. 0. 0. 0. 0. 0. 0. 0. 0. 0. 0. 0. 0. 0. 0. 0.
      1.92307699e-02 0. 0. 0. 0. 1.92307699e-02 0. 0. 0. 0. 0. 0. 0. 0.
      0. 0. 0. 0. 0. 0. 0. 0. 0. 1.92307699e-02 0. 0. 0. 0. 0. 0.
      3.84615399e-02 0. 0. 0. 0. 1.92307699e-02 0. 0. 0. 0. 0. 0. 0. 0.
      0. 0. 0. 0. 0. 0. 0. 0. 0. 0. 0. 0. 0. 0. 0. 0. 3.84615399e-02 0.
      0. 0. 0. 0. 0. 0. 0. 0. 0. 0. 0. 0. 0. 0. 0. 0. 0. 0. 0. 0. 0. 0.
      0. 0. 0. 0. 0. 0. 1.92307699e-02 0. 0. 0. 0. 0. 0. 0. 0. 0. 0. 0.
      1.92307699e-02 1.92307699e-02 0. 0. 0. 0. 1.92307699e-02 0. 0. 0.
      0. 0. 1.92307699e-02 0. 0. 0. 0. 0. 0. 0. 3.84615399e-02 0. 0. 0.
      0. 0. 0. 0. 0. 0. 0. 0. 0. 0. 0. 0. 1.92307699e-02 0. 0. 0. 0. 0.
      0. 0. 0. 0. 0. 0. 0. 0. 0. 0. 0. 0. 0. 0. 0. 1.92307699e-02 0. 0.
      0. 0. 0. 0. 0. 0. 0. 0. 0. 0. 0. 0. 0. 0. 1.92307699e-02 0. 0.
      1.92307699e-02 0. 0. 0. 0. 0. 1.92307699e-02 0. 0. 0. 0. 0. 0. 0.
      0. 0. 0. 1.92307699e-02 1.92307699e-02 0. 0. 0. 0. 0. 0. 0. 0. 0.
      0. 0. 0. 0. 0. 0. 0. 0. 0. 0. 0. 0. 0. 1.92307699e-02 0. 0.
      1.92307699e-02 0. 0. 0. 0. 0. 1.92307699e-02 0. 0. 0. 0.
      1.92307699e-02 0. 0. 0. 0. 0. 0. 0. 0. 0. 0. 0. 0. 1.92307699e-02
      0. 0. 0. 0. 0. 0. 0. 0. 0. 0. 0. 1.92307699e-02 0. 0. 0. 0. 0. 0.
      0. 5.76923117e-02 0. 0. 0. 0. 0. 0. 0. 1.92307699e-02 0.
      1.92307699e-02 0. 0. 0. 0. 0. 0. 0. 0. 0. 0. 0. 0. 0. 0. 0. 0. 0.
      0. 0. 0. 0. 0. 0. 0. 0. 0. 0. 0. 0. 0. 0. 0. 0. 1.92307699e-02 0.
      0. 0. 0. 0. 0. 0. 0. 0. 0. 0. 0. 0. 0. 0. 0. 0. 1.92307699e-02 0.
      0. 0. 0. 0. 0. 0. 0. 0. 0. 0. 0. 0. 0. 0. 0. 1.92307699e-02 0. 0.
      1.92307699e-02 0. 0. 0. 0. 0. 0. 0. 0. 0. 0. 0. 0. 0. 0. 0. 0. 0.
      0. 0. 0. 0. 0. 3.84615399e-02 0. 1.92307699e-02 0. 0. 0. 0.
      1.92307699e-02 0. 1.92307699e-02 0. 0. 0. 0. 1.92307699e-02 0.
      1.92307699e-02 0. 0. 0. 0. 0. 0. 0. 0. 0. 0. 1.92307699e-02 0. 0.
      0. 0. 0. 0. 0. 0. 0. 0. 0. 0. 0. 0. 1.92307699e-02 0. 0. 0. 0. 0.
      0. 0. 0. 0. 0. 0. 0. 0. 0. 0. 0. 0. 0. 0. 0. 0. 1.92307699e-02 0.
      0. 0. 1.92307699e-02 0. 0. 0. 0. 0. 0. 0. 0.</_>
    <_>
      0. 0. 0. 0. 0. 0. 0. 0. 0. 0. 0. 0. 0. 0. 0. 0. 0. 0. 0. 0. 0. 0.
      4.44444455e-02 0. 0. 0. 0. 0. 0. 0. 2.22222228e-02 0. 0. 0. 0. 0.
      0. 0. 0. 0. 0. 0. 0. 4.44444455e-02 4.44444455e-02 0. 0. 0. 0. 0.
      0. 2.22222228e-02 0. 0. 0. 0. 0. 0. 0. 0. 0. 0. 2.22222228e-02 0.
      0. 0. 0. 0. 0. 0. 0. 0. 0. 0. 0. 0. 0. 0. 0. 0. 0. 2.22222228e-02
      0. 0. 0. 0. 2.22222228e-02 0. 0. 0. 0. 0. 0. 0. 0. 0. 0. 0. 0. 0.
      0. 2.22222228e-02 0. 0. 0. 0. 0. 0. 0. 0. 0. 0. 0. 0. 0. 0. 0. 0.
      0. 0. 0. 0. 0. 0. 0. 2.22222228e-02 0. 0. 0. 0. 0. 0. 0. 0. 0. 0.
      0. 0. 0. 0. 0. 0. 0. 0. 2.22222228e-02 0. 0. 0. 0. 0. 0. 0. 0. 0.
      0. 0. 0. 0. 0. 2.22222228e-02 0. 0. 0. 0. 0. 0. 0. 0. 0. 0. 0. 0.
      0. 0. 0. 0. 2.22222228e-02 0. 0. 0. 0. 0. 0. 0. 0. 0. 0. 0. 0. 0.
      0. 0. 0. 0. 0. 0. 0. 0. 0. 0. 2.22222228e-02 0. 0. 0. 0. 0. 0. 0.
      0. 0. 0. 0. 0. 0. 0. 0. 0. 0. 0. 0. 0. 0. 0. 0. 0. 0. 0. 0. 0. 0.
      0. 2.22222228e-02 0. 0. 0. 4.44444455e-02 0. 0. 0. 0. 0.
      2.22222228e-02 2.22222228e-02 0. 0. 0. 0. 0. 0. 0. 2.22222228e-02
      0. 0. 0. 0. 0. 0. 0. 0. 0. 0. 0. 2.22222228e-02 0. 0. 0. 0. 0. 0.
      2.22222228e-02 0. 2.22222228e-02 0. 0. 0. 0. 0. 2.22222228e-02 0.
      0. 0. 0. 0. 0. 0. 0. 0. 0. 2.22222228e-02 0. 0. 2.22222228e-02 0.
      0. 0. 0. 0. 0. 0. 0. 0. 0. 2.22222228e-02 0. 0. 0. 0. 0. 0. 0. 0.
      2.22222228e-02 0. 0. 0. 0. 0. 2.22222228e-02 2.22222228e-02 0. 0.
      0. 0. 0. 0. 0. 0. 2.22222228e-02 0. 0. 0. 0. 0. 0. 0. 0. 0. 0. 0.
      0. 0. 0. 0. 0. 0. 0. 0. 0. 2.22222228e-02 0. 0. 0. 0. 0. 0.
      2.22222228e-02 0. 0. 0. 0. 0. 0. 0. 0. 0. 0. 0. 0. 0. 0. 0. 0. 0.
      0. 0. 0. 0. 0. 0. 0. 0. 0. 0. 0. 0. 0. 0. 0. 2.22222228e-02 0. 0.
      0. 0. 0. 0. 0. 0. 0. 0. 0. 0. 0. 0. 4.44444455e-02 0. 0. 0. 0. 0.
      0. 0. 0. 0. 0. 0. 0. 0. 0. 0. 0. 0. 0. 0. 0. 0. 0. 2.22222228e-02
      0. 0. 0. 0. 0. 0. 0. 0. 0. 0. 0. 0. 0. 0. 0. 0. 0. 2.22222228e-02
      0. 0. 0. 0. 0. 0. 0. 0. 0. 0. 0. 0. 0. 0. 0. 0. 0. 0. 0. 0. 0. 0.
      0. 0. 0. 0. 0. 0. 0. 0. 0. 0. 0. 6.66666701e-02 0. 0. 0. 0. 0. 0.
      0. 0. 0. 0. 0. 0. 2.22222228e-02 0. 0. 0. 0. 0. 0. 0. 0.</_>
    <_>
      0. 0. 0. 0. 0. 0. 3.12500000e-02 0. 0. 3.12500000e-02 0. 0. 0. 0.
      0. 0. 0. 0. 0. 0. 0. 0. 6.25000000e-02 0. 0. 0. 0. 0. 0.
      3.12500000e-02 0. 0. 0. 0. 0. 0. 0. 0. 0. 0. 0. 0. 0. 0. 0. 0. 0.
      0. 0. 0. 0. 0. 0. 0. 0. 0. 0. 0. 0. 0. 0. 0. 0. 0. 0. 0.
      6.25000000e-02 0. 0. 0. 0. 0. 0. 0. 0. 0. 0. 0. 0. 0. 0.
      3.12500000e-02 6.25000000e-02 0. 0. 0. 0. 0. 0. 0. 0. 0. 0. 0. 0.
      0. 0. 0. 0. 0. 0. 0. 0. 0. 0. 0. 0. 0. 0. 0. 0. 0. 0. 0. 0. 0. 0.
      0. 0. 0. 0. 0. 0. 0. 0. 3.12500000e-02 3.12500000e-02 0. 0. 0. 0.
      0. 0. 0. 0. 0. 0. 0. 0. 0. 0. 0. 0. 0. 0. 0. 0. 0. 0. 0. 0. 0. 0.
      0. 0. 0. 0. 3.12500000e-02 0. 6.25000000e-02 0. 0. 0.
      3.12500000e-02 0. 0. 0. 0. 0. 0. 0. 0. 0. 0. 0. 0. 0. 0.
      3.12500000e-02 0. 0. 0. 0. 0. 0. 0. 0. 0. 3.12500000e-02 0. 0. 0.
      0. 3.12500000e-02 0. 0. 0. 0. 0. 0. 0. 0. 0. 0. 0. 0. 0. 0. 0. 0.
      0. 0. 0. 0. 0. 0. 0. 0. 0. 0. 0. 0. 0. 0. 0. 0. 0. 0. 0. 0. 0. 0.
      0. 0. 0. 0. 0. 0. 0. 0. 0. 0. 0. 0. 0. 0. 0. 0. 0. 0. 0. 0. 0. 0.
      0. 0. 0. 0. 0. 0. 0. 0. 0. 0. 0. 0. 0. 0. 0. 0. 0. 0. 0. 0. 0. 0.
      0. 0. 0. 0. 0. 0. 0. 0. 0. 0. 0. 0. 0. 0. 0. 0. 0. 0. 0. 0. 0. 0.
      0. 0. 0. 0. 0. 0. 0. 0. 0. 0. 0. 0. 0. 3.12500000e-02 0. 0. 0. 0.
      0. 0. 0. 0. 0. 0. 0. 0. 0. 0. 0. 0. 6.25000000e-02 0. 0. 0. 0. 0.
      0. 0. 0. 0. 0. 0. 0. 0. 0. 3.12500000e-02 0. 0. 0. 0.
      3.12500000e-02 0. 0. 0. 0. 0. 0. 3.12500000e-02 0. 0. 0. 0. 0. 0.
      0. 0. 0. 0. 0. 3.12500000e-02 0. 0. 0. 0. 0. 0. 0. 0. 0. 0. 0. 0.
      0. 0. 0. 0. 0. 0. 0. 0. 0. 0. 0. 0. 0. 0. 0. 0. 0. 0. 0. 0. 0. 0.
      0. 0. 0. 0. 0. 0. 3.12500000e-02 3.12500000e-02 0. 0.
      6.25000000e-02 0. 0. 0. 0. 0. 0. 0. 0. 0. 0. 0. 0. 0. 0. 0. 0. 0.
      0. 0. 0. 0. 0. 0. 0. 0. 0. 0. 0. 0. 0. 0. 3.12500000e-02 0. 0. 0.
      0. 0. 0. 0. 0. 0. 0. 0. 0. 0. 0. 0. 0. 0. 0. 0. 0. 0. 0. 0. 0. 0.
      0. 0. 0. 0. 0. 0. 0. 0. 0. 0. 0. 3.12500000e-02 0. 0. 0. 0. 0. 0.
      0. 0. 0. 0. 0. 0. 0. 0. 0. 0. 0. 0.</_>
    <_>
      0. 0. 0. 0. 0. 0. 0. 0. 0. 0. 0. 0. 1.47058824e-02 0. 0. 0. 0. 0.
      0. 0. 0. 0. 0. 1.47058824e-02 0. 0. 0. 0. 0. 0. 0. 0. 0. 0. 0. 0.
      0. 0. 0. 0. 0. 0. 0. 1.47058824e-02 0. 0. 0. 1.47058824e-02 0. 0.
      0. 0. 0. 1.47058824e-02 0. 1.47058824e-02 0. 1.47058824e-02 0. 0.
      0. 0. 0. 0. 0. 0. 2.94117648e-02 0. 0. 1.47058824e-02 0. 0. 0. 0.
      0. 0. 0. 0. 0. 0. 0. 1.47058824e-02 1.47058824e-02 0. 0. 0.
      1.47058824e-02 0. 0. 0. 0. 0. 0. 0. 0. 0. 0. 0. 0. 0. 0. 0. 0.
      1.47058824e-02 0. 0. 0. 0. 0. 0. 0. 4.41176482e-02 0. 0. 0. 0. 0.
      0. 0. 0. 0. 0. 0. 0. 0. 0. 0. 0. 0. 0. 2.94117648e-02 0. 0. 0. 0.
      0. 0. 0. 0. 0. 0. 0. 0. 1.47058824e-02 0. 0. 0. 0. 0. 0. 0. 0. 0.
      0. 0. 0. 0. 0. 0. 1.47058824e-02 0. 0. 0. 0. 0. 0. 0. 0. 0. 0. 0.
      0. 0. 0. 1.47058824e-02 0. 0. 0. 0. 0. 0. 2.94117648e-02 0. 0. 0.
      0. 0. 0. 1.47058824e-02 0. 0. 0. 0. 0. 0. 0. 0. 0. 0. 0. 0. 0. 0.
      0. 0. 0. 0. 0. 0. 0. 0. 0. 0. 0. 0. 0. 0. 0. 0. 1.47058824e-02 0.
      1.47058824e-02 0. 0. 0. 0. 0. 1.47058824e-02 0. 0. 1.47058824e-02
      0. 1.47058824e-02 0. 0. 0. 0. 0. 0. 0. 0. 0. 0. 0. 0. 0. 0. 0. 0.
      0. 1.47058824e-02 0. 0. 0. 0. 1.47058824e-02 1.47058824e-02 0. 0.
      0. 0. 1.47058824e-02 1.47058824e-02 0. 0. 0. 0. 0. 0. 0. 0. 0. 0.
      1.47058824e-02 0. 0. 1.47058824e-02 4.41176482e-02 0.
      1.47058824e-02 1.47058824e-02 0. 0. 0. 0. 0. 0. 0. 0. 0. 0.
      1.47058824e-02 0. 0. 0. 0. 0. 0. 0. 0. 0. 0. 0. 0. 0. 0. 0. 0. 0.
      0. 0. 1.47058824e-02 0. 0. 0. 0. 0. 0. 2.94117648e-02 0. 0. 0. 0.
      0. 0. 0. 0. 0. 1.47058824e-02 0. 0. 0. 0. 0. 1.47058824e-02 0. 0.
      0. 1.47058824e-02 0. 0. 0. 0. 0. 0. 0. 0. 0. 2.94117648e-02
      1.47058824e-02 0. 0. 0. 0. 0. 4.41176482e-02 0. 0. 0. 0. 0. 0. 0.
      0. 0. 0. 0. 2.94117648e-02 0. 0. 0. 0. 0. 0. 0. 0. 0. 0. 0.
      1.47058824e-02 0. 0. 0. 0. 0. 0. 0. 0. 0. 0. 0. 0. 0. 0. 0. 0. 0.
      0. 0. 0. 0. 0. 0. 0. 0. 0. 0. 0. 0. 0. 0. 0. 0. 0. 0. 0.
      1.47058824e-02 0. 0. 0. 0. 0. 0. 0. 1.47058824e-02 2.94117648e-02
      0. 0. 0. 0. 2.94117648e-02 0. 0. 0. 0. 0. 0. 0. 0. 0. 0. 0. 0. 0.
      0. 0. 0. 0. 0. 0. 0. 0. 0. 0. 0. 0. 0. 1.47058824e-02
      2.94117648e-02 0. 0. 0. 0. 0. 0. 0. 0. 0. 0. 0. 0. 0. 0. 0. 0.
      1.47058824e-02 0. 0. 0. 0. 0. 0. 0. 0. 0. 0. 0. 0. 0. 0. 0. 0. 0.
      0. 0. 0. 0. 0. 0. 0.</_>
    <_>
      0. 0. 0. 0. 1.35135138e-02 0. 1.35135138e-02 0. 1.35135138e-02 0.
      0. 0. 0. 0. 0. 1.35135138e-02 0. 0. 0. 0. 0. 0. 0. 1.35135138e-02
      0. 0. 0. 0. 0. 1.35135138e-02 4.05405425e-02 0. 0. 0. 0. 0. 0. 0.
      0. 0. 0. 0. 0. 0. 1.35135138e-02 0. 0. 0. 0. 0. 0. 0. 0. 0. 0. 0.
      0. 0. 0. 0. 0. 0. 2.70270277e-02 0. 0. 0. 0. 0. 1.35135138e-02 0.
      0. 0. 0. 0. 0. 0. 0. 0. 0. 0. 0. 0. 1.35135138e-02 0.
      1.35135138e-02 0. 2.70270277e-02 0. 0. 0. 0. 0. 0. 0. 0. 0. 0. 0.
      0. 0. 0. 0. 0. 0. 0. 1.35135138e-02 0. 0. 0. 0. 0. 0. 0. 0. 0. 0.
      1.35135138e-02 0. 0. 0. 0. 0. 0. 0. 0. 0. 0. 0. 1.35135138e-02 0.
      0. 0. 0. 0. 0. 0. 0. 0. 1.35135138e-02 0. 0. 1.35135138e-02 0.
      1.35135138e-02 2.70270277e-02 0. 1.35135138e-02 0. 0. 0. 0. 0. 0.
      0. 0. 0. 0. 1.35135138e-02 0. 1.35135138e-02 0. 0. 0. 0. 0. 0. 0.
      0. 0. 0. 0. 0. 0. 0. 0. 1.35135138e-02 0. 0. 1.35135138e-02 0. 0.
      0. 0. 0. 0. 0. 0. 0. 0. 0. 1.35135138e-02 0. 0. 0. 0. 0. 0. 0.
      1.35135138e-02 0. 0. 0. 0. 0. 1.35135138e-02 0. 0. 0. 0. 0. 0.
      1.35135138e-02 0. 0. 0. 0. 0. 1.35135138e-02 0. 0. 1.35135138e-02
      0. 0. 0. 0. 0. 0. 0. 0. 0. 0. 0. 1.35135138e-02 0. 0. 0. 0.
      1.35135138e-02 0. 0. 0. 0. 0. 0. 0. 0. 0. 0. 0. 0. 0. 0. 0. 0. 0.
      0. 1.35135138e-02 0. 0. 0. 0. 0. 0. 0. 0. 0. 0. 0. 0. 0. 0. 0. 0.
      0. 0. 1.35135138e-02 0. 2.70270277e-02 0. 0. 0. 0. 0. 0. 0. 0. 0.
      0. 0. 0. 0. 0. 0. 0. 1.35135138e-02 0. 0. 0. 0. 0. 0. 0. 0. 0. 0.
      0. 0. 0. 0. 0. 0. 2.70270277e-02 0. 0. 0. 1.35135138e-02 0. 0.
      1.35135138e-02 0. 0. 0. 0. 0. 0. 1.35135138e-02 0. 0.
      1.35135138e-02 0. 0. 1.35135138e-02 0. 1.35135138e-02 0. 0. 0. 0.
      1.35135138e-02 0. 0. 0. 0. 0. 0. 0. 0. 0. 1.35135138e-02 0. 0. 0.
      0. 0. 0. 1.35135138e-02 0. 0. 0. 0. 0. 0. 0. 0. 1.35135138e-02 0.
      0. 0. 0. 0. 0. 0. 0. 0. 0. 0. 0. 0. 0. 0. 0. 0. 0. 0. 0. 0. 0. 0.
      1.35135138e-02 1.35135138e-02 0. 0. 0. 1.35135138e-02 0. 0.
      1.35135138e-02 0. 1.35135138e-02 0. 0. 0. 0. 1.35135138e-02 0.
      2.70270277e-02 0. 2.70270277e-02 0. 0. 0. 0. 0. 0. 0. 0. 0. 0. 0.
      0. 0. 0. 0. 0. 0. 1.35135138e-02 0. 1.35135138e-02 0. 0. 0. 0. 0.
      1.35135138e-02 0. 0. 0. 0. 0. 0. 0. 0. 0. 0. 0. 0. 0. 0. 0. 0. 0.
      0. 0. 0. 0. 0. 0. 0. 0. 0. 0. 0. 2.70270277e-02 0. 0. 0. 0. 0. 0.
      0. 0. 0. 0. 0. 0. 0. 0. 0. 0. 0. 2.70270277e-02 0. 0. 0. 0. 0. 0.
      0. 0. 0. 0. 1.35135138e-02 0. 0. 0. 1.35135138e-02 0. 0. 0. 0.</_>
    <_>
      0. 0. 0. 0. 0. 0. 0. 0. 0. 4.54545468e-02 0. 0. 0. 0. 0. 0. 0. 0.
      0. 0. 0. 0. 0. 0. 0. 0. 0. 0. 0. 4.54545468e-02 0. 0. 0. 0. 0. 0.
      0. 0. 0. 0. 0. 0. 0. 0. 0. 0. 0. 0. 0. 0. 0. 0. 0. 0. 0. 0. 0. 0.
      0. 0. 0. 0. 0. 0. 0. 0. 0. 0. 0. 0. 0. 0. 0. 0. 0. 0. 0. 0. 0. 0.
      0. 0. 0. 0. 0. 0. 0. 0. 0. 0. 0. 0. 0. 0. 0. 0. 0. 0. 0. 0. 0. 0.
      0. 0. 0. 0. 0. 0. 4.54545468e-02 0. 0. 4.54545468e-02 0. 0. 0. 0.
      0. 0. 0. 4.54545468e-02 0. 0. 0. 0. 0. 0. 0. 0. 0. 0. 0. 0. 0. 0.
      0. 0. 0. 0. 0. 0. 0. 0. 0. 0. 0. 0. 0. 0. 0. 0. 0. 0. 0. 0. 0. 0.
      0. 0. 0. 9.09090936e-02 0. 0. 0. 0. 0. 0. 0. 0. 0. 0. 0. 0. 0. 0.
      0. 0. 0. 0. 0. 0. 0. 0. 0. 0. 0. 0. 0. 0. 0. 0. 0. 0. 0. 0. 0. 0.
      0. 0. 0. 0. 0. 0. 0. 0. 0. 0. 0. 0. 0. 0. 0. 0. 0. 0. 0. 0. 0. 0.
      0. 0. 0. 0. 0. 0. 0. 0. 0. 0. 0. 0. 0. 0. 0. 0. 0. 0. 0. 0. 0. 0.
      0. 0. 0. 0. 0. 0. 0. 0. 0. 0. 0. 0. 0. 0. 0. 0. 0. 0. 0. 0. 0.
      4.54545468e-02 0. 0. 0. 0. 0. 0. 0. 0. 0. 0. 0. 0. 0. 0. 0. 0. 0.
      0. 0. 0. 0. 0. 0. 0. 0. 0. 0. 0. 0. 0. 0. 0. 0. 0. 0. 0. 0. 0. 0.
      0. 0. 0. 0. 0. 0. 0. 0. 0. 0. 0. 0. 0. 0. 0. 0. 0. 0. 0. 0. 0. 0.
      0. 0. 0. 0. 0. 0. 0. 0. 0. 0. 0. 0. 0. 0. 0. 0. 0. 0. 0. 0. 0. 0.
      0. 0. 0. 0. 0. 0. 0. 0. 0. 0. 0. 0. 0. 0. 0. 0. 0. 0. 0. 0. 0. 0.
      0. 0. 0. 0. 0. 0. 0. 0. 0. 0. 0. 4.54545468e-02 0. 0. 0. 0. 0. 0.
      0. 4.54545468e-02 4.54545468e-02 0. 0. 0. 0. 0. 0. 0. 0. 0. 0.
      9.09090936e-02 0. 0. 0. 0. 4.54545468e-02 0. 0. 0. 0. 0. 0. 0. 0.
      4.54545468e-02 0. 0. 0. 4.54545468e-02 0. 0. 0. 0. 0. 0. 0. 0.
      4.54545468e-02 0. 4.54545468e-02 0. 0. 4.54545468e-02 0. 0. 0.
      9.09090936e-02 0. 0. 0. 0. 0. 0. 0. 0. 0. 0. 0. 0. 0. 0. 0. 0. 0.
      0. 0. 0. 0. 0. 0. 0. 0. 0. 0. 0. 0. 0. 0. 0. 0. 0. 0. 0. 0. 0. 0.
      0. 0. 0. 0. 0. 0. 4.54545468e-02 0. 0. 0. 0. 0. 0. 0. 0. 0. 0. 0.
      0. 0. 0. 0. 0. 0. 0. 0.</_>
    <_>
      0. 0. 0. 0. 0. 0. 0. 0. 0. 0. 0. 0. 5.55555560e-02 0. 0. 0. 0. 0.
      0. 0. 0. 0. 0. 0. 0. 0. 0. 0. 0. 2.77777780e-02 0. 0. 0. 0. 0. 0.
      0. 0. 0. 0. 0. 0. 0. 0. 0. 0. 0. 0. 0. 0. 0. 2.77777780e-02 0. 0.
      0. 0. 0. 0. 0. 0. 0. 0. 0. 0. 0. 0. 1.11111112e-01 0. 0. 0. 0. 0.
      0. 0. 0. 0. 0. 0. 0. 0. 0. 0. 5.55555560e-02 2.77777780e-02 0. 0.
      0. 0. 0. 0. 0. 0. 0. 0. 0. 0. 0. 0. 0. 0. 0. 0. 0. 0. 0. 0. 0. 0.
      0. 0. 0. 0. 0. 0. 0. 0. 0. 0. 0. 0. 0. 0. 0. 0. 0. 0. 0. 0. 0. 0.
      0. 0. 0. 0. 0. 0. 0. 0. 0. 0. 0. 0. 0. 0. 0. 0. 0. 0. 0. 0. 0. 0.
      0. 0. 0. 0. 0. 2.77777780e-02 0. 8.33333358e-02 0. 0. 0.
      2.77777780e-02 0. 0. 0. 0. 0. 0. 0. 0. 0. 0. 0. 0. 0. 0. 0. 0. 0.
      0. 0. 0. 0. 0. 0. 0. 2.77777780e-02 0. 0. 0. 0. 0. 0. 0. 0. 0.
      2.77777780e-02 0. 0. 0. 0. 0. 0. 0. 0. 0. 0. 0. 0. 0. 0. 0. 0. 0.
      0. 2.77777780e-02 0. 0. 0. 0. 0. 0. 0. 0. 2.77777780e-02 0. 0. 0.
      0. 0. 0. 0. 0. 0. 0. 0. 0. 0. 0. 0. 0. 0. 0. 0. 0. 0. 0. 0. 0. 0.
      0. 0. 0. 0. 0. 0. 0. 0. 0. 0. 0. 0. 0. 0. 0. 0. 0. 0. 0. 0. 0. 0.
      0. 0. 0. 2.77777780e-02 0. 0. 0. 0. 0. 0. 0. 0. 0. 0. 0. 0. 0. 0.
      0. 0. 0. 0. 0. 0. 0. 0. 0. 0. 0. 0. 0. 0. 0. 0. 0. 0. 0.
      2.77777780e-02 0. 0. 0. 0. 0. 0. 0. 2.77777780e-02 0. 0. 0. 0. 0.
      0. 0. 0. 2.77777780e-02 0. 0. 0. 0. 0. 0. 0. 2.77777780e-02 0. 0.
      0. 0. 0. 0. 0. 0. 0. 0. 0. 2.77777780e-02 0. 0. 0. 0. 0. 0. 0. 0.
      0. 0. 0. 0. 0. 0. 0. 0. 0. 0. 1.11111112e-01 0. 0. 0. 0. 0. 0. 0.
      0. 0. 0. 0. 0. 0. 0. 0. 0. 0. 0. 2.77777780e-02 0. 0. 0. 0. 0. 0.
      0. 0. 0. 0. 0. 0. 0. 0. 2.77777780e-02 0. 2.77777780e-02 0. 0. 0.
      0. 2.77777780e-02 0. 0. 0. 2.77777780e-02 0. 0. 0. 0. 0. 0. 0. 0.
      0. 0. 0. 0. 0. 0. 0. 0. 0. 0. 0. 0. 0. 2.77777780e-02 0. 0. 0. 0.
      0. 0. 0. 0. 0. 0. 0. 0. 0. 0. 0. 0. 0. 0. 0. 0. 0. 0. 0. 0. 0. 0.
      0. 0. 0. 0. 0. 0. 0. 0. 0. 0. 0. 0. 0. 0. 0. 0. 0. 0. 0. 0. 0. 0.
      0. 0. 0. 0. 0. 0. 0. 0. 0. 0. 0. 0. 0. 0. 0. 0. 0.</_>
    <_>
      0. 0. 0. 0. 0. 0. 0. 0. 1.26582282e-02 0. 0. 1.26582282e-02
      2.53164563e-02 0. 0. 1.26582282e-02 0. 0. 0. 0. 0. 0. 0. 0. 0. 0.
      0. 0. 0. 1.26582282e-02 0. 0. 0. 0. 0. 0. 0. 0. 0. 0. 0. 0. 0.
      2.53164563e-02 0. 0. 0. 0. 0. 0. 0. 1.26582282e-02 0. 0. 0.
      1.26582282e-02 0. 0. 0. 0. 0. 0. 1.26582282e-02 0. 0. 0. 0. 0. 0.
      0. 0. 0. 0. 0. 0. 0. 0. 0. 0. 0. 0. 2.53164563e-02 0. 0. 0. 0.
      3.79746854e-02 0. 0. 0. 0. 1.26582282e-02 0. 0. 0. 0. 0. 0. 0. 0.
      0. 0. 0. 0. 1.26582282e-02 0. 0. 0. 0. 0. 0. 2.53164563e-02 0. 0.
      1.26582282e-02 0. 0. 1.26582282e-02 0. 0. 0. 0. 0. 1.26582282e-02
      0. 0. 0. 0. 0. 0. 0. 0. 0. 0. 0. 0. 1.26582282e-02 0. 0. 0. 0. 0.
      0. 0. 0. 0. 0. 0. 1.26582282e-02 0. 0. 0. 0. 0. 0. 0. 0. 0. 0. 0.
      0. 1.26582282e-02 0. 0. 0. 0. 0. 0. 1.26582282e-02 0. 0. 0. 0. 0.
      0. 0. 1.26582282e-02 0. 0. 0. 0. 0. 0. 0. 0. 0. 0. 0. 0. 0. 0. 0.
      0. 0. 0. 0. 0. 1.26582282e-02 0. 0. 0. 0. 0. 0. 0. 0. 0. 0. 0. 0.
      0. 0. 0. 0. 0. 0. 0. 0. 1.26582282e-02 0. 1.26582282e-02 0. 0. 0.
      0. 0. 0. 1.26582282e-02 0. 0. 0. 0. 0. 0. 0. 0. 0. 0. 0. 0. 0. 0.
      0. 0. 0. 0. 0. 0. 1.26582282e-02 0. 0. 0. 0. 0. 0. 0.
      1.26582282e-02 0. 0. 0. 0. 3.79746854e-02 0. 1.26582282e-02 0. 0.
      0. 0. 0. 0. 0. 0. 1.26582282e-02 0. 0. 0. 0. 1.26582282e-02 0.
      5.06329127e-02 1.26582282e-02 0. 0. 0. 0. 0. 0. 0. 0. 0. 0. 0. 0.
      0. 0. 0. 0. 0. 0. 0. 0. 0. 0. 0. 0. 0. 0. 0. 0. 0. 0. 0. 0. 0. 0.
      0. 0. 0. 5.06329127e-02 0. 0. 0. 0. 0. 1.26582282e-02 0. 0. 0.
      1.26582282e-02 1.26582282e-02 1.26582282e-02 0. 0. 0. 0. 0.
      1.26582282e-02 0. 0. 0. 0. 1.26582282e-02 0. 0. 0. 1.26582282e-02
      0. 0. 1.26582282e-02 0. 0. 0. 0. 0. 0. 0. 0. 0. 0. 0. 0. 0. 0. 0.
      1.26582282e-02 0. 0. 0. 0. 0. 0. 0. 0. 0. 0. 1.26582282e-02 0. 0.
      0. 0. 0. 0. 0. 0. 0. 0. 0. 0. 0. 0. 0. 0. 0. 0. 0. 0. 0. 0. 0. 0.
      0. 0. 0. 0. 1.26582282e-02 0. 0. 0. 0. 1.26582282e-02 0. 0. 0. 0.
      0. 0. 0. 0. 0. 1.26582282e-02 0. 0. 0. 0. 0. 5.06329127e-02 0.
      2.53164563e-02 0. 0. 0. 0. 0. 0. 1.26582282e-02 0. 0. 0. 0.
      1.26582282e-02 0. 0. 0. 0. 3.79746854e-02 0. 1.26582282e-02 0. 0.
      0. 0. 0. 0. 0. 0. 0. 0. 0. 0. 0. 0. 0. 0. 2.53164563e-02 0. 0. 0.
      0. 0. 0. 0. 0. 0. 1.26582282e-02 0. 0. 0. 0. 0. 0. 0. 0. 0. 0. 0.
      0. 0. 0. 1.26582282e-02 1.26582282e-02 0. 0. 0. 0. 0. 0. 0. 0. 0.
      0.</_>
    <_>
      0. 0. 0. 0. 2.32558139e-02 0. 0. 0. 0. 0. 0. 0. 4.65116277e-02 0.
      0. 0. 0. 0. 0. 0. 0. 0. 0. 0. 0. 0. 0. 0. 0. 0. 0. 0. 0. 0. 0.
      2.32558139e-02 0. 0. 0. 0. 0. 0. 0. 0. 0. 0. 0. 0. 0. 0. 0. 0. 0.
      2.32558139e-02 0. 0. 0. 0. 0. 0. 0. 0. 2.32558139e-02 0. 0. 0. 0.
      0. 0. 0. 0. 0. 0. 0. 0. 0. 0. 0. 0. 0. 0. 0. 0. 0. 0. 0. 0.
      2.32558139e-02 0. 0. 0. 0. 0. 0. 0. 0. 0. 0. 0. 0. 0. 0. 0. 0. 0.
      0. 0. 0. 0. 0. 0. 0. 0. 0. 2.32558139e-02 0. 0. 0. 0. 0. 0. 0. 0.
      0. 0. 0. 0. 0. 0. 0. 0. 0. 0. 0. 0. 0. 2.32558139e-02 0. 0. 0. 0.
      0. 0. 0. 4.65116277e-02 0. 0. 2.32558139e-02 0. 0. 0. 0. 0. 0. 0.
      0. 0. 2.32558139e-02 0. 0. 0. 0. 0. 0. 0. 2.32558139e-02 0. 0. 0.
      0. 0. 0. 0. 0. 0. 0. 0. 0. 0. 0. 0. 0. 0. 0. 0. 0. 0. 0. 0. 0. 0.
      0. 0. 0. 0. 0. 0. 0. 0. 0. 0. 0. 0. 0. 0. 0. 0. 0. 0.
      2.32558139e-02 0. 0. 0. 0. 0. 0. 0. 0. 0. 0. 0. 0. 0. 0. 0. 0.
      2.32558139e-02 0. 0. 0. 0. 0. 0. 0. 0. 2.32558139e-02 0. 0.
      4.65116277e-02 0. 0. 0. 0. 0. 0. 0. 0. 0. 2.32558139e-02 0.
      4.65116277e-02 0. 0. 0. 0. 0. 0. 0. 0. 0. 0. 0. 0. 0. 0. 0. 0. 0.
      0. 0. 0. 0. 0. 0. 0. 0. 2.32558139e-02 0. 0. 0. 0. 0. 0. 0. 0. 0.
      0. 0. 0. 0. 0. 0. 0. 0. 0. 0. 0. 0. 0. 0. 0. 0. 0. 0. 0. 0. 0. 0.
      0. 0. 0. 0. 0. 0. 0. 0. 0. 0. 2.32558139e-02 6.97674453e-02 0. 0.
      2.32558139e-02 0. 0. 0. 0. 2.32558139e-02 2.32558139e-02 0. 0. 0.
      0. 0. 0. 0. 0. 0. 0. 0. 0. 0. 0. 0. 0. 0. 0. 0. 0. 0.
      2.32558139e-02 0. 0. 0. 0. 0. 0. 2.32558139e-02 0. 0. 0. 0. 0. 0.
      4.65116277e-02 0. 0. 0. 2.32558139e-02 0. 0. 0. 0. 0. 0. 0. 0. 0.
      0. 0. 0. 0. 0. 0. 0. 0. 0. 0. 2.32558139e-02 0. 0. 0. 0. 0. 0. 0.
      0. 2.32558139e-02 0. 0. 0. 0. 0. 0. 2.32558139e-02 0. 0. 0. 0. 0.
      0. 0. 0. 0. 0. 0. 2.32558139e-02 0. 0. 0. 0. 0. 0. 0. 0. 0. 0. 0.
      0. 0. 2.32558139e-02 0. 0. 0. 0. 0. 0. 0. 0. 0. 0. 0. 0.
      2.32558139e-02 0. 0. 0. 0. 0. 0. 0. 0. 0. 0. 0. 0. 0. 0. 0. 0. 0.
      0. 0. 0. 0. 0. 0. 0. 0. 0. 0. 0. 0. 0. 0. 0. 0. 0. 0. 0. 0. 0.
      2.32558139e-02 0. 0. 2.32558139e-02 0. 0. 0. 0. 0. 0. 0. 0. 0. 0.
      0. 0. 0. 0.</_>
    <_>
      0. 0. 0. 0. 0. 0. 0. 0. 2.50000004e-02 2.50000004e-02 0. 0.
      7.50000030e-02 0. 0. 0. 0. 0. 0. 0. 0. 0. 0. 0. 0. 0. 0. 0. 0. 0.
      0. 0. 0. 0. 0. 0. 0. 0. 0. 0. 0. 0. 0. 2.50000004e-02 0. 0. 0. 0.
      0. 0. 0. 0. 0. 0. 0. 0. 0. 0. 0. 0. 0. 0. 2.50000004e-02 0. 0. 0.
      2.50000004e-02 0. 0. 0. 0. 0. 0. 0. 0. 0. 0. 0. 0. 0. 0.
      2.50000004e-02 0. 2.50000004e-02 0. 0. 0. 0. 0. 0. 0. 0. 0. 0. 0.
      0. 0. 0. 0. 0. 0. 0. 0. 0. 0. 0. 0. 0. 0. 0. 2.50000004e-02 0. 0.
      0. 0. 0. 0. 0. 0. 0. 0. 0. 0. 0. 0. 0. 0. 0. 0. 0. 0. 0. 0. 0. 0.
      0. 0. 0. 0. 0. 0. 0. 0. 0. 0. 0. 0. 0. 0. 0. 0. 0. 0. 0. 0. 0. 0.
      0. 0. 5.00000007e-02 0. 0. 0. 0. 0. 0. 0. 0. 0. 0. 0. 0. 0. 0. 0.
      0. 0. 0. 0. 0. 0. 0. 0. 0. 0. 0. 2.50000004e-02 0. 0. 0. 0. 0. 0.
      0. 0. 0. 0. 0. 0. 0. 0. 0. 0. 0. 0. 0. 0. 0. 2.50000004e-02 0. 0.
      0. 0. 0. 0. 0. 0. 0. 0. 0. 0. 0. 0. 0. 0. 0. 0. 2.50000004e-02 0.
      0. 0. 0. 0. 0. 0. 0. 0. 0. 0. 0. 0. 0. 2.50000004e-02 0. 0.
      2.50000004e-02 0. 0. 0. 0. 0. 2.50000004e-02 0. 0. 0. 0. 0. 0. 0.
      2.50000004e-02 0. 0. 0. 0. 0. 0. 0. 0. 0. 0. 0. 0. 2.50000004e-02
      0. 0. 0. 0. 0. 0. 0. 0. 0. 0. 0. 0. 0. 0. 0. 0. 0. 0. 0. 0. 0. 0.
      0. 0. 2.50000004e-02 0. 0. 0. 0. 0. 0. 0. 0. 0. 0. 0. 0. 0. 0. 0.
      0. 0. 0. 0. 0. 2.50000004e-02 0. 0. 0. 0. 0. 0. 0. 0.
      2.50000004e-02 2.50000004e-02 0. 0. 0. 0. 0. 5.00000007e-02 0. 0.
      0. 0. 0. 0. 0. 0. 0. 0. 0. 0. 0. 0. 0. 0. 0. 0. 0. 0.
      2.50000004e-02 0. 0. 0. 0. 0. 0. 0. 0. 0. 0. 0. 2.50000004e-02 0.
      0. 0. 0. 0. 0. 0. 0. 0. 0. 0. 0. 0. 0. 0. 0. 0. 0. 0. 0. 0. 0. 0.
      0. 0. 0. 0. 0. 0. 0. 0. 0. 0. 0. 0. 2.50000004e-02 0. 0. 0. 0.
      2.50000004e-02 0. 0. 0. 0. 0. 0. 0. 0. 0. 0. 0. 0. 0. 0. 0. 0.
      2.50000004e-02 0. 0. 0. 0. 0. 0. 0. 0. 2.50000004e-02 0.
      2.50000004e-02 0. 0. 0. 0. 0. 0. 0. 0. 0. 0. 0. 0. 0. 0. 0. 0. 0.
      0. 0. 0. 0. 0. 0. 0. 0. 0. 0. 0. 2.50000004e-02 0. 0. 0. 0. 0.
      2.50000004e-02 0. 0. 0. 0. 0. 0. 0. 0. 2.50000004e-02 0. 0. 0. 0.
      0. 0. 0. 2.50000004e-02 2.50000004e-02 0. 0. 0. 0. 0. 0. 0. 0.
      2.50000004e-02 0.</_>
    <_>
      0. 0. 0. 0. 0. 0. 0. 0. 0. 0. 0. 0. 0. 0. 0. 0. 0. 0. 0. 0. 0. 0.
      0. 0. 0. 0. 0. 0. 0. 0. 0. 0. 0. 0. 0. 0. 0. 0. 0. 0. 0. 0. 0. 0.
      0. 0. 0. 0. 0. 0. 0. 0. 0. 0. 0. 0. 0. 0. 0. 0. 0. 0. 0. 0. 0. 0.
      0. 0. 0. 0. 0. 0. 6.66666701e-02 0. 0. 0. 0. 0. 0. 0. 0. 0. 0. 0.
      0. 0. 0. 0. 0. 0. 0. 0. 0. 0. 0. 0. 0. 0. 0. 0. 0. 0. 0. 0. 0. 0.
      0. 0. 0. 0. 0. 0. 0. 0. 0. 0. 0. 0. 6.66666701e-02 0. 0. 0. 0. 0.
      0. 0. 0. 0. 0. 0. 0. 0. 0. 0. 0. 0. 0. 0. 0. 0. 0. 0. 0. 0. 0. 0.
      0. 0. 0. 0. 0. 6.66666701e-02 0. 0. 0. 0. 0. 0. 0. 0. 0. 0. 0. 0.
      0. 0. 0. 0. 0. 0. 0. 0. 0. 0. 0. 0. 6.66666701e-02 0. 0. 0. 0. 0.
      0. 0. 0. 0. 0. 0. 0. 0. 0. 0. 0. 0. 0. 0. 0. 0. 0. 0. 0. 0. 0. 0.
      0. 0. 0. 6.66666701e-02 0. 0. 0. 0. 0. 0. 0. 0. 0. 0. 0. 0. 0. 0.
      0. 0. 0. 0. 0. 0. 0. 0. 0. 0. 0. 0. 0. 0. 0. 6.66666701e-02 0. 0.
      0. 0. 0. 0. 0. 0. 0. 0. 0. 0. 0. 0. 0. 0. 0. 0. 0. 0. 0. 0. 0. 0.
      0. 0. 0. 0. 0. 0. 0. 0. 0. 0. 6.66666701e-02 0. 0. 0. 0. 0. 0. 0.
      0. 0. 0. 0. 0. 0. 0. 0. 0. 0. 0. 0. 0. 0. 0. 0. 0. 0. 0. 0. 0. 0.
      0. 0. 0. 0. 0. 0. 0. 0. 0. 6.66666701e-02 0. 0. 0. 0. 0. 0. 0. 0.
      0. 0. 6.66666701e-02 0. 0. 0. 0. 0. 0. 0. 0. 0. 0. 0. 0. 0. 0. 0.
      0. 0. 0. 0. 0. 0. 0. 0. 0. 0. 0. 0. 0. 0. 0. 0. 0. 0. 0. 0. 0. 0.
      0. 6.66666701e-02 0. 0. 0. 0. 0. 0. 0. 0. 0. 0. 0. 0. 0. 0. 0. 0.
      0. 0. 0. 0. 0. 0. 0. 0. 0. 0. 0. 0. 0. 0. 0. 0. 0. 0. 0. 0. 0. 0.
      0. 0. 0. 0. 0. 0. 0. 0. 0. 0. 0. 0. 6.66666701e-02 0. 0. 0. 0. 0.
      0. 0. 0. 0. 0. 0. 0. 0. 0. 0. 6.66666701e-02 0. 0. 0. 0. 0. 0. 0.
      0. 0. 0. 0. 0. 0. 0. 0. 0. 0. 0. 0. 0. 0. 0. 0. 0. 0. 0. 0. 0. 0.
      0. 0. 0. 0. 0. 0. 0. 0. 0. 0. 0. 0. 0. 0. 0. 0. 0. 0. 0. 0.
      6.66666701e-02 0. 0. 0. 0. 0. 0. 0. 0. 0. 0. 0. 1.33333340e-01 0.
      0. 0. 0. 0. 0. 0. 0. 0.</_>
    <_>
      0. 0. 0. 0. 9.99999978e-03 0. 9.99999978e-03 0. 0. 0. 0. 0. 0. 0.
      9.99999978e-03 0. 0. 0. 0. 0. 0. 0. 0. 9.99999978e-03 0. 0. 0. 0.
      0. 0. 0. 0. 0. 9.99999978e-03 0. 0. 0. 9.99999978e-03 0. 0.
      9.99999978e-03 0. 0. 9.99999978e-03 0. 0. 0. 0. 0. 0. 0. 0. 0. 0.
      0. 9.99999978e-03 0. 0. 0. 0. 0. 9.99999978e-03 9.99999978e-03 0.
      0. 0. 0. 0. 9.99999978e-03 0. 0. 0. 0. 0. 0. 0. 0. 9.99999978e-03
      0. 0. 0. 0. 9.99999978e-03 1.99999996e-02 0. 0. 9.99999978e-03 0.
      0. 0. 0. 0. 0. 0. 0. 0. 0. 0. 0. 0. 0. 0. 0. 9.99999978e-03 0. 0.
      0. 0. 0. 0. 0. 9.99999978e-03 0. 9.99999978e-03 0. 9.99999978e-03
      0. 0. 0. 0. 9.99999978e-03 0. 0. 0. 0. 0. 9.99999978e-03 0.
      1.99999996e-02 0. 0. 0. 0. 0. 0. 0. 0. 0. 1.99999996e-02 0. 0.
      9.99999978e-03 0. 0. 0. 0. 0. 9.99999978e-03 0. 0. 0. 0.
      9.99999978e-03 0. 0. 0. 9.99999978e-03 0. 0. 0. 9.99999978e-03 0.
      0. 0. 0. 9.99999978e-03 0. 0. 0. 0. 0. 9.99999978e-03
      9.99999978e-03 0. 0. 0. 9.99999978e-03 0. 0. 0. 0. 0. 0. 0. 0. 0.
      0. 0. 9.99999978e-03 0. 0. 0. 0. 0. 0. 0. 9.99999978e-03 0. 0. 0.
      0. 0. 0. 9.99999978e-03 0. 0. 0. 0. 0. 9.99999978e-03
      1.99999996e-02 0. 9.99999978e-03 0. 0. 9.99999978e-03 0. 0. 0. 0.
      0. 0. 9.99999978e-03 0. 0. 1.99999996e-02 0. 0. 0. 0.
      1.99999996e-02 0. 0. 0. 0. 9.99999978e-03 0. 0. 0. 0.
      9.99999978e-03 0. 0. 0. 0. 0. 0. 0. 1.99999996e-02 0. 0. 0. 0. 0.
      0. 0. 0. 0. 0. 0. 9.99999978e-03 0. 9.99999978e-03 0. 0. 0. 0. 0.
      0. 0. 0. 0. 9.99999978e-03 0. 0. 0. 0. 9.99999978e-03 0.
      9.99999978e-03 9.99999978e-03 0. 0. 0. 9.99999978e-03 0. 0. 0.
      1.99999996e-02 0. 0. 0. 0. 0. 0. 0. 0. 0. 0. 0. 0. 0. 0. 0. 0. 0.
      0. 0. 0. 9.99999978e-03 0. 0. 9.99999978e-03 0. 0. 9.99999978e-03
      0. 9.99999978e-03 1.99999996e-02 0. 0. 0. 9.99999978e-03 0. 0. 0.
      0. 9.99999978e-03 9.99999978e-03 0. 9.99999978e-03 0.
      9.99999978e-03 0. 0. 0. 0. 0. 9.99999978e-03 0. 0. 0. 0.
      9.99999978e-03 0. 0. 0. 0. 0. 0. 0. 9.99999978e-03 0. 0. 0. 0. 0.
      0. 0. 0. 0. 0. 0. 0. 0. 9.99999978e-03 0. 0. 0. 0. 0. 0. 0. 0. 0.
      0. 9.99999978e-03 0. 0. 0. 0. 9.99999978e-03 0. 1.99999996e-02 0.
      0. 0. 0. 0. 0. 0. 0. 9.99999978e-03 0. 0. 0. 0. 0. 0. 0. 0. 0. 0.
      9.99999978e-03 0. 9.99999978e-03 0. 0. 0. 9.99999978e-03 0. 0. 0.
      0. 0. 0. 0. 0. 0. 0. 9.99999978e-03 0. 0. 0. 0. 0. 0. 0. 0. 0. 0.
      9.99999978e-03 0. 9.99999978e-03 0. 0. 0. 0. 0. 9.99999978e-03
      9.99999978e-03 0. 0. 0. 0. 0. 0. 0. 0. 0. 0. 0. 0. 0. 0. 0. 0.
      9.99999978e-03 9.99999978e-03 0. 0. 9.99999978e-03 0.
      1.99999996e-02 0. 0. 9.99999978e-03 0. 0. 9.99999978e-03 0. 0. 0.
      0. 0. 0. 0. 0. 0. 9.99999978e-03 0. 0. 0. 0. 0. 9.99999978e-03 0.
      9.99999978e-03 0. 0. 0. 0. 0. 0. 0. 0. 0. 0. 0. 0.</_>
    <_>
      0. 0. 1.38888890e-02 0. 0. 0. 0. 0. 0. 0. 0. 0. 2.77777780e-02 0.
      0. 0. 0. 0. 0. 2.77777780e-02 0. 0. 0. 0. 0. 0. 0. 1.38888890e-02
      0. 1.38888890e-02 0. 0. 0. 0. 0. 1.38888890e-02 2.77777780e-02 0.
      0. 0. 0. 0. 0. 1.38888890e-02 2.77777780e-02 0. 0. 0. 0. 0. 0. 0.
      0. 1.38888890e-02 0. 1.38888890e-02 0. 0. 0. 0. 0. 0. 0. 0. 0. 0.
      1.38888890e-02 0. 0. 0. 0. 0. 0. 1.38888890e-02 0. 0. 0. 0. 0. 0.
      0. 0. 1.38888890e-02 0. 0. 0. 0. 0. 0. 0. 0. 0. 0. 0. 0. 0. 0. 0.
      0. 0. 0. 0. 0. 1.38888890e-02 0. 0. 0. 0. 0. 0. 0. 0. 0. 0. 0. 0.
      1.38888890e-02 0. 0. 0. 0. 0. 0. 0. 0. 0. 0. 0. 0. 0. 0. 0. 0. 0.
      0. 0. 0. 1.38888890e-02 0. 0. 0. 0. 0. 1.38888890e-02 0. 0. 0. 0.
      0. 0. 0. 0. 0. 0. 0. 0. 0. 1.38888890e-02 1.38888890e-02
      2.77777780e-02 0. 0. 0. 0. 0. 0. 0. 0. 0. 0. 1.38888890e-02 0. 0.
      0. 0. 0. 0. 0. 0. 0. 0. 1.38888890e-02 0. 1.38888890e-02 0. 0. 0.
      0. 0. 0. 0. 0. 0. 0. 0. 0. 0. 0. 0. 0. 0. 0. 0. 0. 0. 0. 0. 0. 0.
      0. 0. 0. 0. 0. 0. 0. 0. 0. 0. 0. 1.38888890e-02 0. 0. 0. 0. 0.
      1.38888890e-02 0. 0. 0. 0. 0. 1.38888890e-02 0. 0. 0. 0. 0. 0. 0.
      0. 0. 0. 0. 0. 0. 0. 0. 0. 0. 0. 0. 1.38888890e-02 0. 0. 0.
      1.38888890e-02 0. 0. 0. 1.38888890e-02 0. 0. 0. 0. 0. 0. 0. 0. 0.
      0. 0. 0. 0. 1.38888890e-02 0. 0. 2.77777780e-02 0. 0. 0. 0. 0.
      1.38888890e-02 0. 0. 0. 0. 0. 0. 0. 1.38888890e-02 0. 0. 0. 0. 0.
      0. 0. 0. 0. 1.38888890e-02 0. 0. 0. 0. 0. 0. 0. 0. 2.77777780e-02
